svm_type c_svc
kernel_type rbf
gamma 0.00970874
nr_class 2
total_sv 509
rho -1.00004
label -1 1
nr_sv 311 198
SV
1 1:-0.007714 2:0.133382 3:0.06538 4:0.067778 5:0.024834 6:-0.053112 7:0.016547 8:0.021866 9:0.154538 10:-0.117609 11:0.146558 12:-0.151463 13:0.04437 14:0.039985 15:0.012516 16:0.048946 17:-0.060171 18:-0.146713 19:-0.014853 20:-0.042005 21:0.071495 22:0.114807 23:0.054802 24:0.025236 25:0.147623 26:-0.045359 27:-0.040451 28:-0.086306 29:-0.085913 30:0.066816 31:-0.002633 32:-0.00636 33:-0.001538 34:0.079612 35:0.041474 36:-0.297904 37:-0.279982 38:-0.103577 39:-0.155153 40:0.066162 41:-0.005297 42:-0.34451 43:-0.028352 44:0.044736 45:-0.148173 46:0.011261 47:-0.026525 48:0.127346 49:-0.05589 50:0.07852 51:-0.025079 52:-0.030795 53:0.074313 54:-0.149191 55:-0.054365 56:0.097978 57:-0.044569 58:0.023722 59:0.110059 60:-0.067425 61:0.122713 62:0.053364 63:0.052368 64:0.074688 65:-0.007246 66:0.004939 67:-0.161882 68:-0.191585 69:0.154441 70:0.179814 71:0.117231 72:0.186942 73:0.173435 74:0.085108 75:0.013455 76:-0.091151 77:-0.077076 78:0.04201 79:-0.037642 80:-0.041635 81:-0.056533 82:0.024928 83:-0.041036 84:0.077326 85:0.05927 86:0.07218 87:0.092018 88:-0.059108 89:-0.066175 90:-0.074956 91:-0.077471 92:0.03109 93:-0.060633 94:0.087039 95:-0.050615 96:0.057084 97:-0.061146 98:-0.042959 99:-0.035999 100:0.049974 101:-0.067853 102:-0.032098 103:0.098315 
1 1:0.04329 2:-0.032593 3:-0.11761 4:0.031621 5:-0.107682 6:0.010533 7:-0.063505 8:-0.154506 9:-0.008769 10:0.103811 11:-0.089624 12:-0.051243 13:-0.139441 14:-0.234874 15:-0.219085 16:-0.084637 17:-0.158513 18:-0.082013 19:-0.091335 20:0.058942 21:0.085 22:-0.007532 23:0.003074 24:0.067217 25:-0.023567 26:0.096219 27:0.106915 28:0.053492 29:0.200668 30:0.072911 31:0.101145 32:0.153536 33:0.055565 34:-0.048983 35:0.001033 36:0.082633 37:0.076001 38:0.054249 39:-0.007369 40:-0.024503 41:0.123123 42:0.05911 43:0.083019 44:0.052852 45:0.096842 46:0.048488 47:0.113531 48:0.073839 49:0.050482 50:-0.031724 51:-0.086708 52:-0.066429 53:-0.048602 54:0.110662 55:-0.023179 56:-0.018283 57:0.034127 58:0.072714 59:-0.187195 60:-0.058705 61:-0.033698 62:-0.035371 63:0.002956 64:-0.069352 65:0.229509 66:0.150612 67:0.17786 68:-0.016299 69:-0.305353 70:-0.020549 71:-0.170893 72:-0.172217 73:0.055976 74:-0.042898 75:0.004886 76:0.118144 77:0.055133 78:0.056012 79:-0.049157 80:0.0183 81:-0.095952 82:-0.060071 83:-0.021369 84:0.166772 85:0.231497 86:-0.095184 87:-0.093095 88:-0.093053 89:0.118948 90:-0.062644 91:0.03619 92:-0.019876 93:-0.018206 94:0.12305 95:-0.094177 96:-0.023436 97:0.029074 98:-0.075476 99:0.046365 100:0.009743 101:-0.072127 102:-0.013491 103:0.039819 
1 1:0.188018 2:0.128689 3:0.155142 4:0.219327 5:0.177894 6:0.205653 7:0.17787 8:0.144447 9:0.1277 10:0.246265 11:0.090041 12:0.240243 13:0.090177 14:0.225612 15:0.131581 16:0.212554 17:0.164559 18:0.168493 19:0.032725 20:0.00468 21:0.014203 22:-0.045578 23:-0.084917 24:-0.079875 25:-0.126435 26:-0.014628 27:-0.039555 28:0.028476 29:-0.118486 30:0.015032 31:-0.064949 32:0.070533 33:-0.025201 34:-0.030671 35:-0.075725 36:-0.012663 37:0.013922 38:0.002034 39:-0.002022 40:-0.064427 41:0.03961 42:0.008138 43:-0.049435 44:-0.049797 45:-0.038861 46:0.023786 47:-0.016447 48:-0.054768 49:-0.059551 50:-0.051473 51:0.001063 52:-0.009536 53:-0.021351 54:-0.037115 55:0.045602 56:0.019178 57:-0.007642 58:-0.012733 59:-0.073973 60:0.016431 61:-0.102528 62:0.026176 63:0.005773 64:-0.080466 65:-0.157004 66:-0.124927 67:-0.053485 68:-0.090466 69:-0.035774 70:-0.266839 71:-0.063133 72:-0.063637 73:-0.005895 74:-0.031813 75:-0.074412 76:-0.070152 77:-0.013373 78:-0.044845 79:-0.006337 80:0.180884 81:0.038673 82:0.057546 83:-0.061785 84:-0.069022 85:-0.068826 86:-0.072967 87:-0.059769 88:-0.018968 89:-0.06942 90:-0.082462 91:-0.079489 92:-0.069812 93:0.045381 94:-0.07283 95:0.127333 96:0.030308 97:0.163189 98:0.156355 99:-0.058278 100:-0.020042 101:-0.051835 102:-0.046187 103:0.008961 
0.0386129392256083 1:0.120627 2:-0.075137 3:-0.12812 4:-0.024208 5:-0.102885 6:-0.03191 7:-0.017631 8:0.052244 9:-0.045797 10:-0.07899 11:-0.155002 12:0.00721 13:-0.118752 14:0.321907 15:-0.155936 16:-0.017126 17:-0.024162 18:0.035 19:0.19203 20:0.011169 21:0.083423 22:-0.109634 23:-0.153028 24:-0.131012 25:-0.020764 26:-0.11795 27:-0.015666 28:-0.072479 29:-0.050077 30:0.051159 31:-0.036822 32:0.016816 33:0.096375 34:0.150275 35:0.13162 36:0.05795 37:0.085283 38:0.086027 39:0.064521 40:-0.028364 41:0.353785 42:0.115489 43:0.051365 44:0.256097 45:0.149637 46:0.120021 47:0.101567 48:-0.028557 49:-0.131258 50:-0.114931 51:-0.131518 52:-0.136124 53:-0.176849 54:-0.021203 55:-0.076893 56:-0.039812 57:-0.055592 58:0.031021 59:0.088293 60:0.011197 61:0.112671 62:-0.085301 63:-0.083716 64:-0.047727 65:-0.036666 66:0.103189 67:0.162687 68:0.073356 69:-0.137185 70:0.079875 71:-0.03338 72:0.026368 73:0.024892 74:-0.143441 75:-0.168841 76:-0.061431 77:-0.069506 78:0.002677 79:0.026553 80:-0.014076 81:0.027357 82:-0.005738 83:-0.026092 84:-0.048156 85:0.015861 86:-0.012588 87:-0.025335 88:-0.02498 89:-0.008517 90:0.042514 91:0.065544 92:0.008982 93:-0.047399 94:-0.012207 95:-0.030091 96:-0.069505 97:-0.043474 98:-0.035789 99:-0.033454 100:-0.049635 101:0.009658 102:0.060625 103:0.120138 
0.9132487125740625 1:0.075162 2:-0.037411 3:0.099904 4:0.022717 5:0.258097 6:-0.043883 7:0.029315 8:0.103102 9:0.058721 10:0.052789 11:0.081077 12:0.074539 13:0.009955 14:0.043573 15:0.125097 16:-0.031741 17:0.156004 18:0.036947 19:0.036067 20:-0.044711 21:-0.068912 22:-0.03265 23:0.025974 24:-0.032759 25:0.063929 26:-0.031393 27:0.039514 28:0.04877 29:-0.088176 30:0.060583 31:0.036199 32:0.001643 33:-0.013339 34:0.055885 35:-0.066007 36:-0.111892 37:-0.071841 38:-0.079853 39:-0.092808 40:-0.174733 41:-0.180044 42:0.107285 43:-0.061942 44:0.154977 45:-0.091309 46:-0.09486 47:-0.135845 48:0.346819 49:-0.038994 50:-0.206839 51:-0.254858 52:-0.162622 53:-0.090776 54:0.297121 55:-0.070661 56:0.219815 57:-0.068489 58:-0.071114 59:0.110089 60:0.043405 61:0.059138 62:-0.004083 63:0.044635 64:-0.027264 65:-0.064041 66:-0.004548 67:-0.025919 68:-0.100941 69:0.175669 70:0.224965 71:0.09079 72:0.149967 73:0.072157 74:0.038699 75:0.073681 76:0.011277 77:-0.119581 78:-0.003653 79:-0.000892 80:-0.000841 81:-0.026517 82:-0.045879 83:-0.018958 84:-0.046093 85:-0.004939 86:0.038253 87:-0.014353 88:-0.033705 89:-0.029935 90:-0.039684 91:-0.042489 92:0.001526 93:-0.040269 94:0.016269 95:0.017024 96:-0.022735 97:-0.026771 98:-0.025549 99:-0.005418 100:0.004704 101:-0.028864 102:0.040394 103:0.141716 
0.0701569268280052 1:-0.103263 2:-0.109952 3:-0.042217 4:-0.072459 5:-0.091889 6:0.046748 7:-0.032372 8:-0.062688 9:0.070463 10:0.11622 11:-0.016879 12:0.095052 13:-0.049939 14:-0.094178 15:-0.015649 16:0.02718 17:-0.042673 18:-0.004756 19:-0.050001 20:0.302256 21:0.077518 22:0.02274 23:0.090069 24:0.170128 25:0.130256 26:0.25879 27:0.14236 28:0.190067 29:0.095087 30:0.104927 31:0.199551 32:0.215816 33:0.0605 34:-0.012153 35:0.016952 36:-0.025121 37:-0.024172 38:-0.04134 39:-0.030101 40:-0.062698 41:-0.010553 42:0.060501 43:0.044943 44:0.01235 45:0.067001 46:0.017917 47:0.050452 48:0.038833 49:-0.023091 50:0.011699 51:-0.106384 52:-0.105116 53:-0.111461 54:0.01887 55:-0.098936 56:-0.094014 57:0.02732 58:0.035514 59:-0.052039 60:-0.130856 61:-0.090657 62:-0.081495 63:-0.095662 64:-0.056114 65:0.085107 66:0.075014 67:0.086087 68:0.05542 69:-0.103383 70:-0.104008 71:-0.103155 72:0.021922 73:0.066982 74:0.058044 75:0.118592 76:-0.004432 77:-0.068967 78:0.005892 79:-0.096799 80:0.237827 81:0.201515 82:-0.076814 83:-0.061446 84:-0.074072 85:-0.076613 86:-0.075874 87:-0.040708 88:-0.067166 89:-0.064578 90:-0.077929 91:-0.075941 92:-0.076484 93:0.145632 94:-0.069709 95:0.197579 96:-0.033251 97:0.188816 98:0.187698 99:-0.056536 100:-0.09339 101:-0.036672 102:-0.026347 103:-0.056393 
1 1:0.108476 2:0.157952 3:0.159485 4:0.149481 5:0.069589 6:0.012356 7:0.012059 8:-0.002842 9:-0.057228 10:-0.018096 11:-0.034995 12:0.016392 13:-0.035929 14:-0.026894 15:-0.03772 16:-0.04731 17:-0.028017 18:-0.029005 19:0.107741 20:0.117003 21:0.020154 22:-0.033314 23:-0.063998 24:-0.091528 25:-0.128382 26:-0.08811 27:-0.045947 28:-0.115195 29:-0.064195 30:-0.045858 31:0.013775 32:-0.018286 33:-0.052083 34:-0.118733 35:-0.061533 36:0.024165 37:0.016659 38:-0.103356 39:-0.021582 40:-0.048278 41:0.006161 42:0.08211 43:-0.00748 44:-0.084057 45:0.080022 46:0.126976 47:0.109193 48:-0.095856 49:-0.072068 50:-0.055291 51:-0.071416 52:-0.123832 53:-0.153486 54:-0.021712 55:-0.064107 56:-0.117492 57:-0.032168 58:-0.03394 59:0.060771 60:0.187532 61:0.119828 62:0.125732 63:0.08393 64:0.016436 65:-0.115993 66:-0.006625 67:0.16075 68:0.152429 69:0.014478 70:-0.054218 71:0.158091 72:0.178088 73:-0.088226 74:-0.186662 75:-0.117809 76:-0.074912 77:-0.058152 78:0.0676 79:0.054018 80:0.262314 81:0.091146 82:0.060472 83:-0.053559 84:0.228951 85:-0.045032 86:-0.038963 87:0.349809 88:-0.067389 89:-0.063779 90:-0.074304 91:-0.073108 92:-0.064416 93:-0.063256 94:-0.051552 95:-0.063112 96:-0.00406 97:-0.057514 98:-0.054059 99:-0.057349 100:0.221323 101:-0.064429 102:-0.037434 103:-0.1222 
0.06257834918913126 1:-0.047017 2:-0.12323 3:0.006558 4:0.00855 5:0.002042 6:0.070878 7:-0.095706 8:-0.007971 9:-0.01274 10:0.006786 11:-0.013986 12:0.011619 13:-0.09216 14:-0.041439 15:-0.014252 16:0.022913 17:-0.155125 18:-0.141158 19:-0.04254 20:0.069316 21:0.164531 22:0.167951 23:0.03213 24:-0.050371 25:0.071753 26:0.037817 27:-0.094973 28:-0.128653 29:0.022176 30:0.06679 31:-0.073359 32:0.122171 33:0.048924 34:0.028608 35:0.060592 36:-0.116134 37:-0.074947 38:-0.045142 39:-0.086881 40:-0.164288 41:-0.170782 42:-0.125635 43:-0.042036 44:-0.082825 45:-0.130108 46:-0.080094 47:-0.18913 48:0.078598 49:0.077235 50:0.054781 51:0.00278 52:0.008884 53:0.040617 54:-0.106525 55:-0.13256 56:-0.060773 57:0.026979 58:0.121556 59:-0.185065 60:0.092466 61:0.196746 62:0.234788 63:0.152752 64:0.125687 65:-0.259648 66:-0.376258 67:-0.046434 68:-0.078697 69:-0.009976 70:0.088313 71:0.069054 72:0.114603 73:0.08506 74:0.136933 75:0.158453 76:0.090896 77:-0.044495 78:0.154729 79:0.126095 80:0.007649 81:-0.016037 82:-0.031815 83:-0.019529 84:-0.050751 85:0.005605 86:0.011778 87:-0.002174 88:-0.02968 89:-0.018722 90:-0.034291 91:-0.034842 92:-0.012061 93:-0.032091 94:0.001443 95:-0.014557 96:-0.013106 97:-0.016645 98:-0.017368 99:-0.003673 100:-0.016642 101:-0.014263 102:0.045099 103:0.129691 
1 1:-0.097538 2:-0.182671 3:-0.027873 4:-0.026524 5:-0.007831 6:0.138838 7:-0.066852 8:1.5e-005 9:-0.086606 10:-0.114871 11:0.000298 12:-0.073078 13:-0.028489 14:-0.039775 15:0.067141 16:-0.072655 17:0.128837 18:-0.072551 19:0.219755 20:0.044547 21:0.079454 22:-0.052457 23:0.057461 24:-0.037271 25:-0.069399 26:0.029297 27:-0.019046 28:-0.058493 29:-0.139715 30:-0.020221 31:0.017553 32:-0.04421 33:-0.01897 34:-0.12065 35:-0.047738 36:0.190621 37:0.218773 38:0.165318 39:0.054793 40:0.043933 41:0.049543 42:0.101011 43:0.09988 44:-0.0138 45:-0.00696 46:-0.016381 47:0.021169 48:-0.04137 49:0.12065 50:-0.030376 51:-0.041122 52:-0.066018 53:-0.041407 54:0.229107 55:-0.007987 56:0.092396 57:-0.061106 58:-0.133258 59:-0.037587 60:0.078812 61:0.005009 62:-0.062423 63:0.194436 64:-0.015101 65:-0.046787 66:-0.106459 67:-0.112007 68:-0.183124 69:-0.127521 70:0.035037 71:-0.037862 72:-0.003723 73:0.158059 74:0.030972 75:0.017672 76:-0.004091 77:0.025539 78:-0.030557 79:0.029135 80:-0.077387 81:0.188558 82:0.196242 83:-0.093288 84:0.146272 85:-0.091849 86:-0.088648 87:0.199005 88:0.139459 89:-0.098441 90:-0.119363 91:-0.114582 92:-0.093202 93:0.015058 94:-0.097992 95:0.170666 96:0.169872 97:-0.092791 98:-0.092294 99:-0.085453 100:0.079667 101:0.078757 102:-0.079116 103:-0.110266 
1 1:0.021889 2:0.003811 3:0.145481 4:0.04843 5:0.05246 6:0.023252 7:-0.068605 8:0.107024 9:0.135268 10:-0.043361 11:0.327928 12:0.072381 13:0.067962 14:0.047166 15:0.1294 16:0.282043 17:-0.185585 18:-0.060084 19:-0.012293 20:0.017824 21:0.017696 22:0.073923 23:-0.05829 24:0.06558 25:0.087042 26:-0.088492 27:-0.065084 28:-0.04043 29:-0.139677 30:0.041896 31:0.081675 32:-0.096251 33:-0.009268 34:0.121542 35:0.129292 36:-0.090881 37:-0.22463 38:-0.050707 39:-0.051219 40:-0.066092 41:0.07715 42:-0.092296 43:-0.114193 44:0.207554 45:0.020686 46:-0.11592 47:-0.160215 48:-0.165212 49:-0.110403 50:-0.011605 51:0.045901 52:0.090105 53:0.14379 54:-0.182149 55:0.203819 56:0.154907 57:0.054893 58:0.072625 59:-0.006043 60:-0.008745 61:-0.150022 62:0.100886 63:-0.077064 64:0.072799 65:-0.146511 66:0.019282 67:-0.089398 68:-0.221588 69:-0.068895 70:-0.038871 71:-0.09359 72:-0.032629 73:0.004485 74:-0.061762 75:-0.14189 76:-0.088889 77:-0.15708 78:0.00547 79:-0.00945 80:-0.012368 81:-0.012464 82:0.01071 83:0.013574 84:-0.034244 85:0.004219 86:-0.014421 87:0.030053 88:-0.042097 89:-0.032419 90:-0.044096 91:0.014926 92:-0.019399 93:-0.024915 94:-0.00642 95:-0.011696 96:-0.029005 97:-0.00943 98:-0.02566 99:0.00194 100:-0.026316 101:-0.035711 102:0.033011 103:0.114196 
1 1:0.03185 2:0.069108 3:0.10915 4:0.001484 5:0.067677 6:-0.083752 7:-0.038795 8:-0.018898 9:-0.055882 10:-0.002828 11:0.110523 12:0.087257 13:0.057361 14:0.084617 15:-0.035815 16:-0.0644 17:-0.02257 18:-0.023116 19:0.003542 20:-0.011911 21:-0.047047 22:-0.079842 23:-0.08566 24:-0.125574 25:-0.081363 26:-0.098685 27:-0.070511 28:-0.068836 29:-0.065235 30:-0.097461 31:-0.048289 32:-0.083506 33:-0.022876 34:-0.031378 35:-0.002818 36:-0.087729 37:-0.082625 38:-0.026004 39:-0.009941 40:-0.077813 41:-0.059491 42:-0.051718 43:-0.038638 44:-0.038128 45:-0.065081 46:-0.114897 47:-0.090865 48:-0.076165 49:-0.037344 50:0.108297 51:0.189193 52:0.196632 53:0.258221 54:-0.222165 55:0.351134 56:0.263766 57:-0.011384 58:0.024765 59:-0.010265 60:0.031151 61:0.035332 62:-0.002245 63:-0.024562 64:-0.046592 65:-0.075256 66:-0.06277 67:-0.033129 68:-0.04383 69:-0.021065 70:0.005216 71:0.077137 72:-0.005578 73:-0.188834 74:-0.148117 75:-0.068237 76:-0.056293 77:-0.047671 78:0.015409 79:0.057494 80:-0.046203 81:-0.036348 82:-0.067478 83:-0.072144 84:0.26327 85:-0.064832 86:-0.061203 87:0.005113 88:0.241061 89:-0.031496 90:-0.060989 91:-0.06137 92:-0.069924 93:-0.043119 94:-0.072049 95:-0.040559 96:0.13282 97:-0.046932 98:-0.03827 99:-0.017209 100:0.299998 101:-0.008051 102:-0.0487 103:-0.084239 
0.7041122659178757 1:0.047391 2:-0.002316 3:0.067646 4:0.043069 5:0.069557 6:0.063141 7:0.079647 8:0.064874 9:0.037066 10:0.049506 11:0.011799 12:-0.026032 13:0.049647 14:0.04424 15:0.058886 16:-0.018272 17:0.026536 18:0.001259 19:0.107164 20:0.109697 21:0.166891 22:0.078287 23:0.049481 24:0.015602 25:-0.043673 26:-0.008763 27:0.035988 28:0.014344 29:0.012313 30:0.038102 31:0.096819 32:0.102402 33:-0.060597 34:-0.131348 35:-0.147228 36:-0.053133 37:0.02449 38:0.027571 39:0.014961 40:-0.025326 41:-0.021857 42:0.064593 43:0.090956 44:-0.062467 45:0.044707 46:0.052624 47:0.038002 48:0.015748 49:-0.135587 50:-0.207512 51:-0.133516 52:-0.165342 53:-0.145877 54:0.147999 55:-0.062775 56:0.053167 57:-0.169747 58:-0.220217 59:0.087336 60:0.085544 61:0.05355 62:0.036156 63:0.030016 64:0.037111 65:0.118254 66:0.017345 67:0.16186 68:0.144014 69:0.019078 70:-0.055243 71:0.00511 72:-0.032016 73:0.00673 74:0.00419 75:0.029823 76:0.103391 77:0.101494 78:-0.000802 79:-0.008345 80:-0.165184 81:-0.192926 82:0.061188 83:0.063535 84:0.050572 85:0.192501 86:0.209462 87:0.082085 88:0.154504 89:0.189913 90:0.010977 91:0.009122 92:0.04587 93:-0.17679 94:0.094385 95:-0.188833 96:0.065067 97:-0.186617 98:-0.183565 99:-0.192535 100:0.119289 101:0.099997 102:0.140875 103:-0.069593 
1 1:-0.022006 2:0.064335 3:-0.09877 4:-0.254788 5:0.016565 6:0.029966 7:0.251522 8:0.006838 9:0.00767 10:0.014836 11:-0.081 12:-0.119816 13:-0.098577 14:-0.120141 15:-0.020928 16:0.02051 17:-0.029184 18:-0.059713 19:-0.062807 20:-0.211112 21:-0.186518 22:-0.054941 23:-0.070974 24:-0.054197 25:-0.070027 26:0.000696 27:-0.048367 28:0.044135 29:-0.117245 30:-0.014128 31:-0.071896 32:0.01718 33:-0.08399 34:-0.136552 35:0.084948 36:0.123624 37:-0.023053 38:-0.088614 39:-0.050176 40:0.085699 41:0.079772 42:-0.051337 43:-0.108265 44:0.018655 45:0.010881 46:-0.026647 47:-0.008802 48:-0.07016 49:0.092484 50:0.027389 51:0.095358 52:0.097777 53:0.041943 54:0.024298 55:-0.011746 56:0.053945 57:-0.086867 58:0.094325 59:-0.013693 60:0.055314 61:0.073565 62:0.102612 63:0.053657 64:0.078619 65:-0.121462 66:-0.088022 67:-0.182164 68:-0.044922 69:0.010907 70:0.22559 71:0.151524 72:0.065044 73:-0.124946 74:-0.004636 75:-0.025136 76:-0.024868 77:-0.083434 78:0.108547 79:0.032868 80:0.13802 81:0.165596 82:0.130056 83:-0.086036 84:0.112256 85:-0.07033 86:-0.081004 87:0.178366 88:0.151712 89:-0.100275 90:-0.104879 91:-0.113068 92:-0.090389 93:0.144549 94:-0.097498 95:0.128647 96:0.167057 97:-0.08505 98:-0.086724 99:-0.077538 100:0.109263 101:-0.081703 102:-0.075587 103:-0.16436 
0.8460734879598809 1:-0.114468 2:0.016984 3:-0.098051 4:0.021586 5:-0.049878 6:-0.029239 7:-0.123602 8:-0.228733 9:-0.176702 10:-0.012691 11:-0.043705 12:-0.070531 13:0.068307 14:-0.004573 15:-0.084298 16:-0.121989 17:-0.185152 18:-0.18058 19:-0.177718 20:0.054985 21:0.086315 22:-0.134978 23:-0.017354 24:-0.008098 25:0.016149 26:0.06089 27:-0.001964 28:0.046622 29:0.088993 30:0.000106 31:0.004886 32:0.047736 33:-0.086996 34:0.030624 35:0.041045 36:-0.011494 37:-0.104607 38:-0.110934 39:-0.000998 40:0.014964 41:-0.015164 42:-0.075855 43:-0.118309 44:-0.089721 45:-0.088915 46:-0.142251 47:-0.083809 48:0.051991 49:-0.002925 50:0.12808 51:0.254365 52:0.174168 53:0.250393 54:-0.224546 55:0.1496 56:0.025427 57:0.087854 58:0.126764 59:0.01942 60:0.111558 61:0.091772 62:0.013184 63:0.076098 64:-0.058206 65:0.127439 66:0.016017 67:0.118618 68:0.03183 69:-0.0729 70:-0.169355 71:-0.164536 72:-0.138392 73:0.03594 74:-0.023 75:0.207842 76:0.128313 77:0.022647 78:0.006027 79:-0.044965 80:-0.011439 81:-0.011315 82:0.018388 83:-0.041662 84:-0.073941 85:-0.006679 86:0.071327 87:-0.029198 88:-0.026969 89:-0.038568 90:-0.041044 91:-0.044834 92:-0.035652 93:-0.032371 94:0.005698 95:-0.037208 96:-0.01881 97:-0.034914 98:-0.02749 99:-0.015283 100:-0.02351 101:-0.023406 102:0.281191 103:0.114253 
1 1:-0.040861 2:0.422137 3:-0.087122 4:0.020327 5:-0.061208 6:0.032098 7:-0.051356 8:-0.011051 9:0.016575 10:0.004017 11:-0.013953 12:0.027187 13:-0.097724 14:0.091796 15:-0.020904 16:0.093001 17:-0.040563 18:0.055069 19:0.091494 20:0.077431 21:0.101073 22:0.099719 23:-0.055289 24:0.032503 25:0.0435 26:0.079607 27:0.068549 28:0.093583 29:-0.012158 30:0.040683 31:0.115226 32:0.054241 33:-0.0599 34:-0.108536 35:-0.076156 36:-0.025565 37:-0.018009 38:-0.080497 39:-0.101478 40:-0.146752 41:-0.066923 42:-0.008252 43:-0.052809 44:-0.074402 45:0.004347 46:-0.068817 47:-0.027391 48:0.100541 49:-0.027868 50:-0.187741 51:-0.187664 52:-0.191074 53:-0.213713 54:0.154886 55:-0.000291 56:0.079374 57:-0.034899 58:-0.108191 59:-0.008698 60:0.082063 61:0.148177 62:0.17503 63:0.184741 64:0.062114 65:-0.010724 66:-0.073053 67:0.075397 68:0.071459 69:0.063155 70:0.007633 71:0.024194 72:0.147556 73:0.000904 74:-0.048527 75:-0.016813 76:-0.045017 77:-0.003813 78:0.055996 79:0.027886 80:0.064204 81:-0.111753 82:-0.173033 83:0.074371 84:0.148648 85:0.085998 86:-0.072732 87:0.05975 88:0.031159 89:-0.083992 90:0.019684 91:0.034196 92:-0.060684 93:-0.152119 94:-0.150903 95:-0.02381 96:0.104959 97:0.181061 98:0.038431 99:-0.145315 100:-0.015609 101:-0.152352 102:0.126594 103:0.054914 
0.05226001097879944 1:0.053878 2:0.113453 3:0.065888 4:0.024329 5:-0.008531 6:-0.064128 7:-0.022775 8:0.013749 9:0.159483 10:0.098105 11:0.021186 12:0.099686 13:0.003951 14:0.121296 15:0.086054 16:0.15238 17:0.092825 18:0.076098 19:0.020975 20:0.081478 21:0.064821 22:0.056794 23:0.077919 24:-0.038165 25:0.010591 26:0.011574 27:0.031217 28:0.074626 29:0.042146 30:0.093864 31:0.048795 32:0.011538 33:0.029812 34:-0.030688 35:0.037183 36:0.001587 37:0.033939 38:0.087335 39:0.078238 40:0.008209 41:0.047804 42:0.044371 43:0.124174 44:0.114989 45:0.110786 46:0.004966 47:-0.083355 48:0.114537 49:-0.116591 50:-0.090235 51:-0.09874 52:-0.108177 53:-0.119743 54:0.047427 55:-0.035499 56:0.001181 57:-0.128416 58:-0.142695 59:-0.042949 60:-0.04654 61:-0.118143 62:-0.024918 63:-0.090666 64:-0.085523 65:0.038996 66:-0.132151 67:-0.104569 68:-0.074268 69:-0.016182 70:-0.050011 71:-0.086683 72:-0.110203 73:0.030955 74:0.155088 75:0.164379 76:0.238837 77:0.216425 78:-0.016936 79:-0.008698 80:-0.050818 81:-0.009389 82:0.025394 83:-0.056885 84:-0.029771 85:-0.060014 86:-0.060786 87:0.021542 88:-0.01693 89:0.448003 90:-0.089332 91:-0.086911 92:-0.068395 93:0.02204 94:-0.056172 95:0.002994 96:0.352664 97:0.063775 98:0.067485 99:-0.029948 100:-0.018659 101:-0.011725 102:-0.044189 103:-0.145933 
0.6092331425098253 1:-0.144579 2:-0.181404 3:-0.09622 4:-0.119127 5:0.067033 6:0.271179 7:0.206819 8:0.158653 9:0.143005 10:0.022286 11:0.020285 12:-0.057675 13:0.000654 14:0.154627 15:0.212515 16:0.037355 17:0.135247 18:0.043282 19:-0.245015 20:-0.163458 21:-0.199334 22:-0.02561 23:-0.03584 24:-0.081916 25:-0.106969 26:-0.003117 27:0.008702 28:0.030184 29:-0.132757 30:0.02993 31:-0.021785 32:-0.03474 33:0.001125 34:-0.139077 35:-0.099057 36:0.082012 37:0.139202 38:0.089943 39:-0.043012 40:-0.072787 41:-0.084038 42:0.046589 43:0.056037 44:-0.086425 45:-0.147109 46:-0.176351 47:-0.142955 48:0.01627 49:0.189461 50:0.166147 51:0.045473 52:0.023391 53:-0.079024 54:0.014256 55:0.050035 56:0.087194 57:0.101422 58:0.151805 59:0.055672 60:-0.139155 61:-0.132546 62:0.039717 63:0.147348 64:0.05445 65:0.015526 66:-0.155731 67:-0.04898 68:-0.088163 69:0.03903 70:-0.081983 71:-0.07301 72:-0.041969 73:-0.072263 74:0.039168 75:0.22212 76:-0.039772 77:0.049179 78:0.060398 79:0.081887 80:0.007442 81:-0.015602 82:-0.03353 83:-0.020236 84:-0.050198 85:0.013878 86:0.012186 87:-0.004204 88:-0.024898 89:-0.018214 90:-0.028596 91:-0.029358 92:-0.011734 93:-0.03122 94:0.001404 95:-0.014162 96:-0.01275 97:-0.011078 98:-0.014935 99:-0.005108 100:-0.03055 101:-0.006661 102:0.032644 103:0.12617 
0.03346979218161972 1:0.083666 2:-0.072464 3:0.024324 4:0.074618 5:0.121431 6:0.016071 7:0.125899 8:0.094845 9:0.076526 10:0.073874 11:0.073006 12:0.110774 13:0.11829 14:0.05793 15:0.037598 16:-0.020491 17:-0.019225 18:0.131084 19:0.077683 20:0.037628 21:-0.025685 22:0.097662 23:0.174641 24:0.130109 25:0.204413 26:0.045446 27:-0.081178 28:-0.013522 29:0.041522 30:-0.000622 31:-0.053542 32:-0.007076 33:0.047423 34:0.013167 35:0.03273 36:-0.101731 37:-0.075962 38:-0.028726 39:0.109962 40:0.162342 41:-0.05956 42:-0.199646 43:-0.080106 44:0.028688 45:-0.060284 46:0.040409 47:-0.026387 48:-0.106281 49:0.023132 50:0.084391 51:-0.027061 52:-0.073669 53:-0.054786 54:-0.055055 55:-0.154793 56:-0.120076 57:-0.020616 58:-0.048227 59:-0.026844 60:-0.202765 61:-0.050336 62:0.178443 63:-0.048113 64:0.042353 65:0.111788 66:0.102166 67:0.033217 68:-0.046615 69:-0.026676 70:0.061954 71:-0.036241 72:0.031673 73:0.050828 74:-0.022153 75:-0.006323 76:0.007683 77:-0.022498 78:-0.132157 79:-0.147963 80:-0.127256 81:-0.080176 82:0.121856 83:0.063602 84:0.121553 85:0.16422 86:0.152456 87:0.13956 88:0.090061 89:0.151235 90:-0.168833 91:-0.157337 92:-0.13823 93:-0.09864 94:-0.162673 95:-0.088734 96:0.095263 97:-0.087411 98:-0.099295 99:0.165179 100:0.16982 101:0.120638 102:0.103685 103:-0.173639 
1 1:-0.008891 2:-0.061261 3:-0.018646 4:-0.060973 5:0.022397 6:-0.118116 7:0.065205 8:-0.097179 9:-0.006795 10:0.008097 11:0.012228 12:-0.064553 13:0.04579 14:-0.03031 15:-0.012294 16:-0.087521 17:0.122975 18:0.095583 19:-0.14354 20:-0.087238 21:-0.064214 22:-0.016381 23:-0.049115 24:0.096131 25:0.063735 26:0.041905 27:0.095958 28:0.049553 29:0.0002 30:0.153633 31:0.115369 32:0.09612 33:0.05714 34:0.019722 35:0.041021 36:-0.090873 37:-0.06186 38:-0.018586 39:0.114289 40:0.156554 41:-0.054183 42:-0.180336 43:-0.065732 44:0.032679 45:-0.049629 46:0.050437 47:-0.017021 48:-0.077393 49:-0.135493 50:-0.217114 51:-0.104674 52:-0.115672 53:-0.090027 54:0.115586 55:0.163065 56:0.104234 57:-0.177767 58:-0.189461 59:0.085915 60:0.051297 61:0.022711 62:0.151745 63:0.194167 64:0.161589 65:0.001221 66:-0.029791 67:0.098643 68:0.025076 69:0.130515 70:-0.026367 71:-0.001821 72:0.033801 73:0.060875 74:0.058472 75:0.031858 76:0.095389 77:0.217896 78:0.018964 79:0.074258 80:0.031878 81:-0.027077 82:0.016669 83:-0.09881 84:-0.069159 85:0.046873 86:0.039649 87:0.061273 88:0.283003 89:-0.103258 90:-0.028225 91:-0.010314 92:-0.102705 93:-0.107608 94:-0.097586 95:-0.046818 96:-0.062774 97:-0.098334 98:-0.070689 99:0.302003 100:0.161109 101:-0.050869 102:-0.079701 103:0.020995 
0.1798525894725666 1:0.008839 2:-0.060565 3:0.027209 4:-0.109398 5:0.040479 6:-0.106145 7:0.070113 8:-0.037868 9:0.018855 10:-0.02271 11:-0.094781 12:-0.031096 13:0.037822 14:0.004965 15:-0.061312 16:-0.051388 17:0.05626 18:-0.085015 19:-0.088765 20:-0.121713 21:-0.08183 22:-0.003662 23:-0.063609 24:-0.097322 25:-0.135831 26:0.100678 27:0.064707 28:0.057632 29:-0.042562 30:0.05104 31:0.048325 32:0.201493 33:-0.122345 34:-0.099915 35:-0.013463 36:-0.11088 37:-0.052897 38:0.109608 39:-0.130164 40:0.199443 41:-0.01328 42:-0.041819 43:-0.041015 44:0.048185 45:-0.059549 46:-0.029372 47:-0.131137 48:-1.4e-005 49:0.08044 50:-0.013578 51:-0.018945 52:-0.0808 53:-0.028541 54:0.115405 55:-0.139353 56:-0.077339 57:0.124086 58:0.120489 59:-0.078058 60:0.000255 61:0.414078 62:-0.083872 63:0.034563 64:0.135386 65:-0.034945 66:0.049144 67:0.018992 68:-0.077681 69:0.032085 70:0.158463 71:-0.055128 72:0.060213 73:-0.115115 74:-0.125012 75:-0.017314 76:-0.082997 77:-0.04299 78:0.116871 79:0.065746 80:0.007337 81:-0.075945 82:-0.123337 83:0.052783 84:-0.018347 85:0.081727 86:-0.126639 87:-0.093601 88:-0.087057 89:0.004148 90:-0.130757 91:-0.097285 92:0.209021 93:0.310701 94:-0.028629 95:0.064197 96:-0.024717 97:0.10142 98:0.119413 99:-0.05251 100:-0.093668 101:0.000534 102:-0.121291 103:0.012946 
0.08595237050776039 1:0.114375 2:-0.136935 3:-0.123999 4:-0.123379 5:-0.013182 6:-0.098968 7:0.114982 8:0.016179 9:0.081248 10:-0.055516 11:-0.010412 12:-0.011942 13:0.028547 14:-0.017604 15:-0.0199 16:-0.066995 17:0.087674 18:-0.032865 19:-0.193128 20:0.012486 21:-0.081946 22:0.02186 23:0.118541 24:0.087685 25:-0.035463 26:0.046282 27:-0.017656 28:-0.007548 29:-0.069328 30:-0.047017 31:-0.027219 32:-0.142044 33:0.262331 34:0.181072 35:0.116667 36:0.065018 37:0.090552 38:0.080903 39:0.102751 40:-0.031824 41:-0.060792 42:0.085705 43:0.029652 44:0.099325 45:0.087088 46:0.006735 47:0.028851 48:-0.119156 49:-0.034654 50:0.008872 51:0.038037 52:0.06541 53:0.030615 54:-0.00277 55:0.165923 56:0.02639 57:-0.031581 58:-0.011873 59:-0.07022 60:-0.42319 61:-0.020035 62:0.038163 63:0.008821 64:-0.021697 65:0.011435 66:-0.017634 67:-0.109647 68:-0.170464 69:0.10266 70:0.036732 71:0.00254 72:-0.028009 73:-0.009042 74:0.023631 75:-0.000331 76:-0.05018 77:-0.053493 78:-0.028845 79:0.049357 80:-0.120601 81:0.070692 82:-0.040575 83:-0.168371 84:0.083587 85:-0.201081 86:-0.211059 87:-0.016553 88:0.088276 89:0.108537 90:0.132581 91:0.120081 92:-0.00021 93:0.040815 94:0.007746 95:0.117918 96:0.112209 97:-0.120518 98:-0.122332 99:0.110463 100:0.051377 101:-0.193339 102:0.102948 103:-0.001672 
0.04482346740534898 1:-0.031094 2:-0.125272 3:-0.134555 4:0.032917 5:-0.107243 6:-0.127666 7:-0.077998 8:-0.084465 9:-0.031195 10:0.158768 11:-0.078693 12:0.068852 13:-0.260837 14:-0.039051 15:-0.198781 16:0.094558 17:-0.139232 18:0.050522 19:-0.09199 20:0.019814 21:0.089594 22:0.062382 23:0.051621 24:-0.005872 25:0.021899 26:0.016246 27:0.005971 28:0.048921 29:-0.041787 30:-0.019884 31:0.018748 32:0.052538 33:0.044707 34:0.036302 35:0.078431 36:-0.038659 37:-0.118292 38:-0.021501 39:-0.07226 40:0.015665 41:0.067613 42:-0.052521 43:-0.095309 44:0.005031 45:-0.138936 46:-0.062876 47:-0.08622 48:-0.10182 49:0.052841 50:0.112515 51:0.089797 52:0.05941 53:-0.059227 54:-0.110027 55:-0.177427 56:-0.106347 57:0.034069 58:0.14902 59:0.098462 60:0.012377 61:0.089701 62:0.068086 63:0.070344 64:0.170105 65:-0.120355 66:0.058896 67:-0.093028 68:0.030318 69:-0.036401 70:0.262226 71:0.128879 72:0.114169 73:-0.085339 74:-0.152874 75:-0.013945 76:-0.010493 77:0.023738 78:-0.015162 79:-0.01973 80:0.04826 81:-0.111483 82:-0.128434 83:0.0297 84:-0.053915 85:-0.111552 86:0.15941 87:-0.017201 88:-0.106431 89:0.078383 90:-0.014507 91:0.004093 92:0.124236 93:0.177126 94:-0.12138 95:-0.109561 96:-0.102844 97:0.325902 98:0.102178 99:-0.050171 100:0.01029 101:-0.07612 102:-0.000724 103:-0.032752 
1 1:0.002748 2:0.007003 3:0.068313 4:0.025733 5:-0.021132 6:-0.093851 7:-0.048584 8:-0.091012 9:-0.036014 10:-0.155267 11:-0.029494 12:-0.156622 13:-0.049377 14:-0.090023 15:-0.058645 16:-0.080668 17:-0.163529 18:-0.127373 19:-0.005763 20:-0.012711 21:0.085825 22:-0.020618 23:-0.068513 24:-0.016599 25:0.030917 26:-0.044093 27:-0.010632 28:-0.044148 29:-0.026687 30:0.086362 31:-0.004536 32:-0.050599 33:-0.03751 34:-0.006899 35:-0.040035 36:-0.097382 37:-0.037105 38:-0.102469 39:-0.013722 40:0.011778 41:-0.081932 42:-0.135745 43:0.03299 44:0.025479 45:-0.07033 46:-0.063463 47:-0.104049 48:0.050823 49:0.171591 50:0.155724 51:0.06873 52:-0.004785 53:-0.0162 54:0.009659 55:-0.079435 56:-0.166031 57:-0.026933 58:-0.054443 59:0.005937 60:0.165905 61:0.123996 62:-0.011676 63:0.065919 64:-0.028139 65:-0.012558 66:-0.092436 67:0.092131 68:0.040661 69:-0.070271 70:-0.022523 71:-0.112893 72:-0.073688 73:0.071347 74:-0.002492 75:0.07312 76:0.233588 77:0.294526 78:0.209062 79:0.322601 80:0.036902 81:0.018653 82:-0.002385 83:-0.036912 84:-0.074073 85:-0.028546 86:-0.027245 87:-0.033252 88:-0.02003 89:-0.027843 90:-0.034891 91:-0.002529 92:-0.01093 93:-0.053444 94:-0.033738 95:-0.03899 96:-0.038018 97:-0.041657 98:-0.016432 99:0.494193 100:-0.049543 101:-0.029552 102:-0.007123 103:0.030043 
1 1:0.188145 2:0.050489 3:0.032798 4:-0.090773 5:-0.020224 6:-0.051356 7:0.005477 8:-0.211544 9:-0.010655 10:-0.135223 11:-0.045288 12:-0.263602 13:-0.111972 14:0.019237 15:-0.1529 16:-0.101314 17:-0.105835 18:-0.124914 19:0.024548 20:-0.065833 21:-0.03202 22:-0.111027 23:-0.033523 24:-0.118794 25:-0.119719 26:-0.096061 27:-0.050487 28:-0.128063 29:-0.167012 30:-0.034229 31:-0.192545 32:-0.075632 33:-0.036423 34:-0.091799 35:-0.017542 36:0.037047 37:0.03455 38:0.060423 39:0.031247 40:0.167941 41:-0.030564 42:0.005357 43:0.111087 44:-0.072039 45:0.158321 46:0.194824 47:0.177679 48:0.118366 49:-0.008871 50:-0.064517 51:-0.000383 52:0.026781 53:0.02551 54:-0.016869 55:0.034153 56:-0.001206 57:-0.021465 58:-0.081557 59:0.05283 60:0.136774 61:0.098068 62:-0.008077 63:0.096254 64:0.200829 65:-0.019789 66:0.004791 67:-0.258263 68:-0.248036 69:0.00923 70:0.20483 71:0.118814 72:-0.010034 73:0.011562 74:0.015069 75:0.061959 76:0.089063 77:0.026987 78:-0.012807 79:0.208397 80:0.066232 81:0.079526 82:0.01982 83:-0.074223 84:0.041584 85:-0.077991 86:-0.078449 87:0.029389 88:0.00443 89:0.01161 90:-0.001092 91:-0.008259 92:-0.068809 93:-0.08684 94:-0.086137 95:0.005033 96:0.060682 97:0.052203 98:0.050617 99:-0.06624 100:-0.019004 101:-0.091252 102:-0.054351 103:0.092116 
1 1:0.058704 2:-0.08374 3:0.204327 4:-0.004925 5:0.092621 6:0.014658 7:0.147745 8:-0.060565 9:0.146527 10:0.056877 11:0.077743 12:-0.071077 13:0.046704 14:0.067375 15:0.118731 16:-0.009119 17:0.019701 18:-0.162864 19:0.110006 20:-0.000732 21:0.004416 22:0.041171 23:-0.036241 24:-0.121013 25:-0.042204 26:0.049362 27:0.032605 28:-0.042723 29:-0.096795 30:0.108207 31:0.089091 32:0.073982 33:-0.016758 34:-0.161322 35:-0.135657 36:-0.052261 37:0.043686 38:0.008981 39:-0.050682 40:-0.066042 41:-0.070892 42:0.047982 43:0.033225 44:-0.121822 45:0.071298 46:0.046242 47:0.079513 48:-0.156906 49:-0.110755 50:-0.004614 51:0.043404 52:0.019587 53:0.00907 54:-0.032157 55:0.044853 56:-0.086588 57:-0.113536 58:-0.044398 59:0.070372 60:0.086114 61:0.163651 62:0.068016 63:0.071624 64:0.065704 65:0.130475 66:-0.149397 67:0.141115 68:0.210226 69:0.097058 70:0.03273 71:0.082612 72:-0.004983 73:-0.057206 74:-0.162769 75:-0.218768 76:-0.172862 77:-0.100165 78:-0.116115 79:-0.130555 80:0.067479 81:-0.091252 82:-0.111019 83:-0.095756 84:0.054864 85:0.185441 86:0.2084 87:0.087812 88:0.049447 89:0.069472 90:-0.11885 91:-0.116728 92:0.02448 93:-0.095391 94:0.04482 95:-0.085376 96:0.044689 97:-0.09374 98:-0.094707 99:0.228248 100:0.103232 101:-0.106595 102:-0.087801 103:-0.007829 
0.7788274893611562 1:-0.016936 2:-0.017349 3:0.130976 4:-0.023205 5:-0.03116 6:-0.168192 7:-0.03448 8:-0.115518 9:-0.054568 10:-0.110109 11:-0.047039 12:-0.025956 13:-0.128925 14:-0.169749 15:-0.019752 16:-0.101158 17:0.038316 18:-0.03939 19:0.203793 20:0.074081 21:-0.068728 22:-0.151191 23:-0.145788 24:-0.166333 25:-0.170106 26:-0.107033 27:-0.025394 28:-0.082934 29:-0.129965 30:-0.092524 31:0.031122 32:-0.07999 33:-0.023732 34:-0.022563 35:-0.012274 36:-0.00549 37:0.099392 38:0.036399 39:0.105798 40:0.074852 41:-0.089713 42:0.026837 43:0.048664 44:-0.054335 45:0.059324 46:0.049343 47:0.058785 48:-0.11836 49:-0.072471 50:-0.134221 51:-0.034629 52:-0.009265 53:-0.042937 54:-0.030242 55:0.035739 56:0.034839 57:-0.007398 58:-0.029962 59:0.031343 60:0.180152 61:0.054845 62:0.103377 63:0.211868 64:0.109972 65:0.00454 66:-0.046031 67:0.004979 68:0.057696 69:0.142162 70:0.063963 71:0.096562 72:0.319954 73:-0.146751 74:-0.129939 75:-0.010723 76:-0.152691 77:-0.072583 78:0.006327 79:0.049721 80:-0.070599 81:-0.064835 82:-0.026476 83:-0.045229 84:0.071023 85:-0.083303 86:-0.048075 87:-0.083853 88:-0.047852 89:-0.071867 90:0.103767 91:-0.006129 92:-0.088925 93:-0.090036 94:0.037903 95:0.229926 96:0.101762 97:-0.085039 98:-0.084667 99:-0.035251 100:0.10156 101:-0.030989 102:0.289278 103:0.032596 
0.4215120019242156 1:-0.008152 2:-0.084456 3:-0.062228 4:-0.066165 5:0.05812 6:-0.132582 7:-4.9e-005 8:-0.079758 9:-0.053353 10:-0.015919 11:-0.025909 12:-0.060247 13:-0.04023 14:-0.048029 15:0.052784 16:0.013696 17:0.108661 18:-0.196663 19:0.068118 20:0.036096 21:-0.130839 22:-0.04344 23:-0.02922 24:-0.084961 25:-0.093049 26:-0.084073 27:0.025693 28:-0.046545 29:-0.113903 30:-0.019758 31:0.088827 32:-0.068452 33:0.049451 34:-0.021546 35:0.079184 36:-0.047993 37:0.101591 38:-0.004545 39:0.000864 40:-0.065503 41:-0.094918 42:-0.002238 43:-0.026984 44:-0.148382 45:0.128655 46:-0.045288 47:-0.005087 48:-0.160941 49:0.147602 50:0.129983 51:0.101835 52:0.061599 53:0.044118 54:-0.116004 55:-0.096319 56:-0.094243 57:0.241471 58:0.175773 59:0.088915 60:-0.015249 61:0.013812 62:0.295874 63:-0.026702 64:0.026587 65:-0.050218 66:-0.004185 67:-0.000489 68:-0.036737 69:0.059574 70:-0.040326 71:-0.008807 72:-0.24777 73:-0.069315 74:-0.140922 75:-0.094069 76:-0.15535 77:-0.028833 78:-0.007334 79:0.047592 80:0.016282 81:-0.145074 82:-0.136239 83:0.07831 84:-0.077229 85:-0.077739 86:0.156756 87:0.1626 88:0.074493 89:0.140892 90:0.143798 91:0.194707 92:0.058763 93:-0.144586 94:0.045841 95:-0.117152 96:-0.002851 97:-0.116489 98:-0.138545 99:-0.076969 100:0.124583 101:-0.028458 102:-0.140875 103:0.015059 
0.2637095102509472 1:0.035994 2:0.118056 3:0.120618 4:0.139289 5:-0.087563 6:0.05267 7:-0.105627 8:-0.078707 9:0.003389 10:-0.058191 11:0.001497 12:-0.033054 13:-0.071016 14:0.022974 15:0.018387 16:0.010121 17:-0.022112 18:0.037211 19:0.020498 20:0.073018 21:0.008724 22:-0.015062 23:-0.187516 24:-0.139544 25:-0.124116 26:-0.166588 27:-0.077488 28:-0.018683 29:0.035804 30:0.040645 31:0.051048 32:0.142985 33:-0.001573 34:0.010862 35:0.05276 36:0.070696 37:0.017971 38:0.021634 39:0.008383 40:0.049272 41:0.231898 42:0.080106 43:0.099449 44:0.154337 45:0.05339 46:0.122549 47:0.186025 48:0.056323 49:0.021764 50:-0.135616 51:-0.157332 52:-0.112172 53:-0.095321 54:0.259798 55:-0.100183 56:-0.100141 57:-0.031988 58:-0.087518 59:-0.086691 60:0.075415 61:0.055499 62:0.020036 63:0.012918 64:-0.024497 65:0.01579 66:-0.114998 67:0.049326 68:0.004334 69:-0.111961 70:0.027291 71:-0.035626 72:-0.0497 73:-0.010734 74:0.024663 75:-0.062131 76:0.047436 77:0.037694 78:0.023175 79:-0.034371 80:-0.043553 81:0.169753 82:0.078857 83:-0.132065 84:0.074065 85:-0.096858 86:-0.094586 87:0.051959 88:0.221787 89:0.312638 90:-0.117754 91:-0.120529 92:-0.141417 93:0.086872 94:-0.141833 95:0.148847 96:0.079811 97:0.00172 98:-0.007978 99:-0.071467 100:0.06038 101:0.075391 102:-0.135025 103:-0.163364 
0.1850928408712081 1:0.065562 2:0.03031 3:0.050965 4:0.04732 5:0.126992 6:-0.070897 7:0.066465 8:-0.056736 9:-0.041393 10:-0.054728 11:-0.051858 12:-0.044224 13:-0.008705 14:-0.081147 15:0.020766 16:-0.034312 17:-0.04409 18:-0.055858 19:-0.040416 20:-0.056322 21:-0.077416 22:-0.105253 23:-0.096459 24:-0.126363 25:-0.039854 26:-0.169933 27:0.045786 28:0.052406 29:-0.172106 30:0.008714 31:-0.040829 32:-0.088071 33:0.092639 34:0.022437 35:0.123368 36:0.077595 37:0.055766 38:-0.01684 39:-0.019508 40:-0.025497 41:0.000858 42:0.01353 43:-0.047165 44:-0.057284 45:-0.033819 46:-0.04613 47:-0.03505 48:-0.177439 49:-0.107081 50:-0.023464 51:0.067259 52:0.069642 53:0.062575 54:-0.109498 55:0.065854 56:0.044985 57:-0.086806 58:-0.103994 59:0.018971 60:0.046747 61:0.000421 62:0.196718 63:0.347458 64:0.138424 65:-0.168695 66:-0.063988 67:0.127045 68:0.099658 69:0.154857 70:0.003647 71:0.185207 72:0.084592 73:-0.090537 74:-0.082895 75:-0.070818 76:-0.059436 77:-0.040897 78:-0.141622 79:0.07454 80:0.033799 81:-0.065239 82:-0.033043 83:-0.064913 84:0.026148 85:-0.057911 86:-0.057937 87:0.041765 88:0.035411 89:-0.070132 90:-0.056889 91:-0.055915 92:0.284809 93:-0.071701 94:0.159031 95:-0.063694 96:0.393129 97:-0.001613 98:-0.063154 99:0.023416 100:-0.072384 101:-0.070431 102:-0.033843 103:-0.062711 
1 1:-0.061379 2:0.001467 3:-0.060251 4:0.061073 5:-0.124382 6:-0.104014 7:-0.109626 8:-0.124924 9:-0.03476 10:-0.097849 11:-0.072955 12:-0.124503 13:-0.177528 14:-0.137612 15:-0.146174 16:-0.073407 17:-0.179815 18:-0.089761 19:0.198906 20:0.002471 21:0.075147 22:-0.019528 23:-0.157134 24:-0.087398 25:-0.15702 26:-0.09706 27:-0.436614 28:-0.09745 29:-0.01402 30:-0.019802 31:0.043047 32:-0.10433 33:0.003238 34:0.007543 35:0.008182 36:-0.146656 37:-0.093126 38:-0.054342 39:-0.027468 40:-0.070846 41:-0.008682 42:-0.004208 43:0.030872 44:0.06197 45:0.159514 46:0.12468 47:0.177938 48:-0.001157 49:0.080985 50:0.06672 51:0.073595 52:0.051902 53:0.044388 54:0.031145 55:0.070741 56:0.000735 57:0.11233 58:0.16379 59:-0.021112 60:-0.025934 61:0.038945 62:-0.086126 63:-0.166857 64:0.00418 65:0.027643 66:0.289401 67:0.014537 68:-0.015114 69:-0.091995 70:-0.077044 71:-0.021522 72:-0.100867 73:0.076823 74:-0.0704 75:-0.049044 76:-0.02759 77:-0.012593 78:0.22168 79:0.135896 80:0.040466 81:-0.015106 82:0.025629 83:-0.019335 84:-0.078667 85:-0.052708 86:0.012101 87:0.016561 88:-0.06653 89:-0.051332 90:-0.031588 91:-0.013434 92:0.032416 93:-0.000292 94:-0.024128 95:-0.02006 96:-0.040674 97:0.011205 98:0.0679 99:-0.020745 100:-0.059485 101:0.0494 102:-0.024642 103:0.107418 
1 1:-0.091184 2:-0.253359 3:-0.112879 4:0.016748 5:-0.056093 6:-0.069244 7:0.025953 8:-0.05922 9:-0.006157 10:0.056865 11:-0.035155 12:0.016347 13:0.070635 14:-0.081168 15:-0.041808 16:-0.032736 17:0.001305 18:-0.09884 19:-0.026776 20:0.087007 21:-0.058189 22:0.036729 23:-0.041901 24:-0.040554 25:-0.053138 26:-0.104945 27:0.019439 28:0.116779 29:-0.105037 30:0.099021 31:0.112138 32:0.124448 33:-0.025657 34:-0.031776 35:-0.06555 36:0.041282 37:0.066232 38:0.058324 39:0.058278 40:0.051052 41:-0.011537 42:0.136773 43:-0.091991 44:-0.155966 45:-0.083788 46:0.08349 47:-0.174333 48:-0.040356 49:0.112722 50:0.00261 51:-0.03077 52:-0.092372 53:-0.061074 54:0.240651 55:0.015979 56:0.016438 57:0.144346 58:0.009852 59:-0.160209 60:0.035258 61:0.071129 62:0.178992 63:0.26727 64:0.06391 65:-0.117428 66:-0.049915 67:0.069287 68:0.088679 69:0.03001 70:0.111779 71:0.055692 72:0.13382 73:0.035513 74:-0.099926 75:-0.384694 76:-0.381526 77:0.116241 78:-0.048633 79:-0.061947 80:0.000313 81:-0.020926 82:-0.037746 83:-0.023595 84:-0.054724 85:0.032938 86:0.014915 87:-0.010805 88:-0.032235 89:-0.022967 90:-0.022362 91:-0.00341 92:0.040197 93:-0.034724 94:-0.00666 95:-0.009337 96:-0.017865 97:-0.021181 98:-0.021752 99:-0.006619 100:-0.034472 101:0.007567 102:0.021974 103:0.116488 
0.1006660021848981 1:0.027876 2:-0.041244 3:-0.050424 4:0.008287 5:-0.121279 6:0.031661 7:-0.037013 8:0.084281 9:-0.084941 10:0.031259 11:-0.122773 12:0.196508 13:-0.062057 14:0.075373 15:0.003391 16:0.080512 17:0.031255 18:0.088673 19:0.11373 20:0.020889 21:-0.030018 22:0.002177 23:-0.144111 24:-0.041074 25:-0.106024 26:0.113081 27:-0.141533 28:-0.177728 29:-0.125004 30:-0.150023 31:-0.059916 32:-0.070091 33:0.028203 34:0.0727 35:0.090293 36:0.016239 37:0.023576 38:0.045109 39:0.006184 40:-0.00821 41:-0.073904 42:0.131941 43:0.084484 44:0.216282 45:0.064533 46:0.069372 47:0.081213 48:0.044968 49:-0.093406 50:-0.081707 51:-0.013903 52:-0.001882 53:-0.070508 54:0.009935 55:0.028919 56:0.090568 57:-0.02952 58:-0.010663 59:0.257916 60:-0.094559 61:-0.008034 62:-0.102568 63:-0.112335 64:0.015408 65:-0.012083 66:0.098763 67:-0.008782 68:-0.056144 69:-0.136867 70:0.337138 71:-0.076703 72:0.029339 73:-0.142708 74:-0.0775 75:-0.038601 76:-0.000932 77:-0.062407 78:0.072539 79:-0.03362 80:-0.079656 81:0.109346 82:0.030868 83:0.207407 84:0.007132 85:-0.002061 86:-0.056195 87:-0.089844 88:0.034258 89:-0.101151 90:0.100619 91:-0.113286 92:-0.096503 93:0.082647 94:-0.064381 95:0.194413 96:-0.087285 97:0.301986 98:-0.031794 99:0.02271 100:-0.09852 101:-0.038894 102:-0.083404 103:-0.094116 
0.1378137736812768 1:0.021499 2:-0.146094 3:-0.170118 4:-0.092896 5:-0.074933 6:0.139793 7:0.012185 8:0.18247 9:-0.033246 10:0.3055 11:-0.157199 12:0.236015 13:-0.074258 14:0.197763 15:0.018032 16:0.004767 17:0.121908 18:0.042203 19:-0.119369 20:0.025704 21:-0.035333 22:0.063904 23:0.025965 24:0.061405 25:0.084121 26:-0.04299 27:-0.032495 28:-0.060584 29:0.086246 30:-0.126023 31:-0.16331 32:-0.123293 33:-0.142265 34:-0.247353 35:-0.029111 36:0.025968 37:-0.022429 38:-0.090919 39:-0.193877 40:-0.256762 41:-0.05889 42:-0.033585 43:-0.141039 44:0.090077 45:-0.101358 46:-0.114741 47:-0.089218 48:0.075617 49:0.087525 50:0.055766 51:0.096399 52:0.11599 53:0.13719 54:-0.044556 55:0.090008 56:0.127808 57:0.088854 58:0.070601 59:0.031059 60:-0.173998 61:0.035115 62:-0.02109 63:-0.033952 64:0.036994 65:-0.107182 66:0.003065 67:-0.062461 68:0.047683 69:0.223845 70:0.093141 71:0.018963 72:0.187774 73:0.034253 74:0.058736 75:0.001355 76:0.019035 77:0.002519 78:-0.072316 79:-0.06332 80:-0.009515 81:-0.008613 82:-0.028532 83:-0.0222 84:-0.036513 85:0.010366 86:-0.012236 87:-0.020908 88:-0.027533 89:-0.003343 90:-0.016668 91:-0.032689 92:0.006043 93:-0.030958 94:-0.001105 95:0.016374 96:0.008305 97:-0.021345 98:-0.019708 99:-0.020128 100:-0.024945 101:-0.015451 102:0.035177 103:0.115767 
0.5130099991323823 1:0.027592 2:-0.053675 3:-0.114487 4:0.04603 5:-0.072795 6:-0.1678 7:0.002112 8:-0.071408 9:0.061491 10:-0.021861 11:0.005371 12:-0.027225 13:0.032803 14:0.576923 15:0.045795 16:-0.044304 17:-0.029712 18:-0.037104 19:-0.177031 20:0.045638 21:0.056566 22:0.072627 23:0.08148 24:-0.073434 25:0.114479 26:0.062982 27:0.098917 28:0.147654 29:0.070006 30:0.102121 31:0.026235 32:0.157759 33:-0.010482 34:0.07043 35:0.029702 36:-0.143677 37:0.013423 38:-0.052927 39:-0.081729 40:0.071325 41:0.168622 42:-0.133383 43:-0.055599 44:-0.000682 45:-0.106252 46:-0.180432 47:-0.119506 48:-0.050696 49:-0.034344 50:0.006543 51:-0.027829 52:-0.030014 53:-0.00215 54:-0.051904 55:-0.00339 56:-0.035876 57:-0.001148 58:0.048143 59:-0.000572 60:-0.006563 61:0.027137 62:0.182733 63:0.052724 64:-0.048704 65:-0.11213 66:0.043687 67:-0.035412 68:-0.034843 69:0.065767 70:0.024873 71:0.03646 72:0.178614 73:0.071729 74:-0.050807 75:-0.076727 76:-0.095875 77:-0.172132 78:-0.044084 79:-0.000859 80:-0.05762 81:-0.085841 82:-0.082373 83:-0.083782 84:-0.098826 85:0.09909 86:0.111998 87:0.083813 88:0.016173 89:-0.075412 90:0.091426 91:0.072805 92:-0.073346 93:-0.062477 94:0.094435 95:-0.016459 96:0.146275 97:-0.082896 98:0.011798 99:0.017313 100:0.030382 101:-0.091703 102:-0.043357 103:0.052631 
0.0271527253441817 1:0.128424 2:0.156594 3:0.141337 4:-0.019459 5:-0.06066 6:-0.069527 7:-0.008883 8:-0.163042 9:-0.194582 10:-0.261481 11:-0.121586 12:-0.025364 13:-0.066497 14:-0.010298 15:0.000886 16:-0.06889 17:-0.078288 18:-0.018311 19:0.203722 20:0.051517 21:-0.058785 22:0.026611 23:-0.026083 24:0.02912 25:-0.010356 26:0.122439 27:0.152294 28:0.125133 29:-0.06543 30:0.056837 31:0.130433 32:0.095618 33:0.087134 34:-0.034642 35:0.011542 36:0.09943 37:0.128751 38:0.063051 39:0.018548 40:0.056768 41:0.030041 42:0.068378 43:0.048159 44:-0.157041 45:0.117826 46:0.120429 47:0.120243 48:-0.021879 49:0.016828 50:0.01519 51:0.087273 52:0.144235 53:0.150282 54:0.000906 55:0.142439 56:0.156926 57:-0.094837 58:-0.329013 59:-0.010014 60:-0.136811 61:-0.065512 62:-0.069939 63:-0.195099 64:-0.075575 65:0.005858 66:-0.017098 67:0.096675 68:0.027216 69:-0.128985 70:-0.023016 71:-0.097355 72:-0.280511 73:-0.040423 74:0.043277 75:-0.069012 76:0.059533 77:0.19701 78:-0.143544 79:0.016634 80:0.036997 81:-0.02829 82:-0.033931 83:-0.051044 84:-0.0319 85:-0.02973 86:-0.027879 87:0.012564 88:0.002239 89:-0.014306 90:0.015781 91:0.017449 92:-0.045332 93:-0.029175 94:-0.035454 95:-0.003364 96:-0.007457 97:-0.030459 98:-0.02303 99:-0.036844 100:-0.016776 101:-0.005646 102:0.000834 103:0.142072 
0.2163649228725192 1:0.102915 2:-0.05505 3:0.094545 4:-0.142161 5:0.214863 6:0.083074 7:0.272295 8:0.135208 9:0.175193 10:0.046761 11:0.106607 12:0.03616 13:0.093537 14:0.070104 15:0.173856 16:0.153844 17:0.16482 18:-0.004548 19:-0.001272 20:-0.07942 21:-0.046737 22:-0.118022 23:0.113965 24:-0.063599 25:0.032094 26:-0.05047 27:-0.008894 28:-0.134086 29:-0.00173 30:-0.024124 31:-0.009769 32:-0.082161 33:0.001951 34:0.027441 35:0.076037 36:0.114201 37:0.126294 38:0.0983 39:-0.008233 40:-0.008649 41:-0.327646 42:0.076214 43:0.073673 44:0.07244 45:0.013301 46:-0.087665 47:-0.026766 48:-0.050401 49:-0.070188 50:-0.028067 51:-0.014115 52:0.015955 53:-0.115669 54:0.056992 55:0.050849 56:-0.024136 57:-0.052768 58:-0.074465 59:-0.080003 60:-0.021761 61:0.001228 62:0.011326 63:0.087464 64:-0.01871 65:0.049628 66:-0.063368 67:-0.012232 68:-0.044224 69:-0.001558 70:-0.055471 71:-0.163904 72:-0.136222 73:0.072013 74:0.081426 75:0.027722 76:0.035722 77:0.078147 78:-0.04857 79:-0.064362 80:-0.047505 81:-0.06339 82:-0.063272 83:0.20234 84:0.19574 85:0.042631 86:-0.014863 87:-0.058622 88:0.038771 89:-0.068111 90:0.005376 91:0.00349 92:-0.063393 93:0.034666 94:-0.062994 95:0.348086 96:-0.057939 97:0.036597 98:-0.061323 99:0.132849 100:-0.070021 101:-0.068429 102:-0.042744 103:-0.143929 
0.6133713863211571 1:-0.085757 2:0.008472 3:0.077657 4:0.075918 5:-0.011255 6:0.097866 7:0.01765 8:0.058125 9:0.014801 10:0.035621 11:0.008694 12:-0.060906 13:-0.027763 14:-0.004312 15:0.011458 16:-0.036406 17:-0.010938 18:-0.025294 19:-0.068012 20:0.05761 21:-0.011569 22:-0.038022 23:0.010357 24:0.060204 25:0.115621 26:0.032922 27:0.003504 28:0.032361 29:0.1335 30:0.099215 31:0.029685 32:0.057524 33:-0.128165 34:-0.103146 35:0.001919 36:0.064487 37:0.094669 38:0.052209 39:0.044181 40:-0.004534 41:-0.051592 42:0.059763 43:0.022933 44:-0.085124 45:-0.063578 46:-0.079241 47:-0.01575 48:0.070169 49:-0.176251 50:-0.172572 51:-0.126918 52:-0.144932 53:-0.167371 54:0.000743 55:-0.00595 56:-0.073349 57:-0.118261 58:-0.150178 59:0.034425 60:0.117089 61:0.11511 62:0.071499 63:0.022555 64:0.124546 65:0.108522 66:-0.004029 67:0.061795 68:0.049285 69:-0.030952 70:0.052522 71:0.03712 72:0.18875 73:-0.043242 74:0.025092 75:0.128537 76:0.158146 77:0.030142 78:0.081368 79:0.084219 80:-0.070095 81:0.063595 82:-0.078174 83:-0.10594 84:0.169838 85:0.177133 86:0.203458 87:-0.113226 88:-0.1118 89:-0.106973 90:0.18705 91:0.168793 92:-0.111745 93:0.180015 94:-0.108377 95:0.228234 96:0.109114 97:-0.080351 98:-0.080907 99:0.245799 100:-0.120398 101:-0.125163 102:0.020436 103:-0.191551 
0.1154666105202149 1:-0.016297 2:-0.066935 3:-0.180587 4:-0.224285 5:-0.140297 6:-0.185942 7:-0.123961 8:-0.138414 9:-0.085821 10:0.013915 11:-0.095504 12:-0.102316 13:-0.079174 14:-0.124831 15:-0.234146 16:-0.134995 17:-0.155727 18:-0.10046 19:-0.062472 20:-0.066819 21:-0.02821 22:0.028161 23:-0.000317 24:-0.117821 25:-0.078776 26:-0.055278 27:-0.087513 28:-0.103114 29:-0.071955 30:-0.060066 31:-0.025212 32:-0.078764 33:0.07212 34:-0.020491 35:-0.056135 36:0.046668 37:-0.033247 38:-0.024603 39:-0.083653 40:-0.008736 41:0.048839 42:0.112698 43:0.075131 44:0.101489 45:-0.014316 46:0.024342 47:0.071299 48:0.102493 49:0.113693 50:0.175973 51:0.169912 52:0.220387 53:0.195421 54:-0.08751 55:0.084671 56:0.026367 57:0.11394 58:0.181713 59:-0.063575 60:-0.136278 61:0.033048 62:0.024883 63:-0.156738 64:0.069686 65:-0.0345 66:0.100138 67:-0.052041 68:-0.071294 69:0.012065 70:0.047111 71:0.043509 72:-0.059169 73:-0.079781 74:-0.044714 75:0.022276 76:-0.02435 77:-0.059246 78:0.03167 79:0.025459 80:-0.030992 81:-0.06248 82:0.009406 83:0.321422 84:0.001167 85:0.082141 86:-0.034104 87:-0.092856 88:-0.086668 89:-0.042063 90:0.001977 91:-0.073316 92:0.047128 93:0.0284 94:-0.101501 95:-0.05335 96:-0.08928 97:0.155175 98:-0.015075 99:0.10301 100:-0.062239 101:-0.082384 102:-0.078073 103:0.03926 
1 1:-0.096645 2:-0.059469 3:0.136874 4:0.151367 5:0.096397 6:-0.06576 7:-0.132268 8:0.128809 9:-0.24674 10:-0.069695 11:0.058218 12:0.1708 13:0.068245 14:0.078567 15:-0.045821 16:-0.108958 17:-0.045794 18:-0.099473 19:-0.099614 20:-0.015741 21:-0.124419 22:-0.066288 23:-0.00183 24:0.060159 25:0.074304 26:0.020573 27:0.013584 28:-0.002608 29:-0.110223 30:-0.00993 31:-0.027056 32:-0.079324 33:-0.081652 34:0.041253 35:0.136613 36:-0.114049 37:-0.242455 38:-0.308683 39:0.000568 40:0.011968 41:0.025685 42:-0.115682 43:-0.219718 44:-0.124147 45:0.027387 46:-0.001635 47:0.008249 48:0.019937 49:0.282616 50:0.23065 51:0.176871 52:0.082973 53:0.105149 54:0.054753 55:-0.04667 56:-0.144017 57:0.240852 58:0.196802 59:-0.085355 60:0.017072 61:0.006666 62:-0.001726 63:-0.020857 64:-0.065652 65:-0.022857 66:0.033501 67:0.050429 68:0.037049 69:-0.011889 70:-0.053886 71:-0.089359 72:-0.030766 73:-0.055677 74:-0.103117 75:-0.127602 76:-0.008712 77:0.02003 78:-0.068694 79:-0.091272 80:-0.003989 81:-0.030477 82:-0.043246 83:-0.026699 84:-0.066781 85:-0.010642 86:-0.008277 87:-0.019185 88:-0.040995 89:-0.034024 90:-0.047556 91:-0.05099 92:-0.007933 93:-0.041242 94:-0.01218 95:0.073647 96:-0.024561 97:0.049596 98:0.075388 99:-0.019509 100:-0.042277 101:-0.014171 102:0.017443 103:0.130424 
1 1:-0.057578 2:0.136221 3:0.076486 4:0.126039 5:-0.026359 6:-0.104016 7:-0.108642 8:0.198183 9:0.025219 10:-0.022097 11:0.02988 12:-0.049485 13:-0.07092 14:-0.041607 15:0.018728 16:0.197031 17:-0.063276 18:0.048785 19:-0.007583 20:0.006815 21:0.148204 22:0.14143 23:-0.081756 24:-0.075956 25:-0.032535 26:0.064675 27:0.093493 28:0.149596 29:-0.043972 30:0.078447 31:-0.003997 32:0.024183 33:-0.161847 34:-0.130901 35:-0.195699 36:-0.005461 37:-0.023187 38:-0.02982 39:-0.051238 40:-0.11509 41:-0.026719 42:-0.014639 43:-0.031384 44:-0.021348 45:-0.03436 46:-0.013043 47:-0.07644 48:0.079049 49:-0.08048 50:-0.077924 51:-0.097495 52:-0.088063 53:-0.06354 54:0.139016 55:-0.036033 56:0.003199 57:-0.058714 58:-0.048964 59:0.013878 60:0.065968 61:-0.001575 62:0.140635 63:-0.066311 64:0.108145 65:-0.180178 66:-0.004049 67:-0.041698 68:-0.026753 69:0.118488 70:0.057493 71:0.277229 72:0.169124 73:0.029926 74:0.121579 75:-0.076347 76:0.054368 77:-0.004346 78:-0.018497 79:0.074824 80:-0.082945 81:-0.099555 82:0.172509 83:0.203923 84:-0.124481 85:-0.030563 86:0.053895 87:-0.096521 88:-0.096633 89:-0.106338 90:0.034807 91:-0.018743 92:0.128053 93:-0.090569 94:0.164058 95:0.265457 96:-0.091653 97:-0.096061 98:-0.095523 99:0.008784 100:0.151688 101:0.113128 102:-0.085938 103:-0.052668 
1 1:0.004812 2:-0.055822 3:-0.036394 4:-0.016988 5:-0.037237 6:0.009069 7:-0.011351 8:0.10612 9:0.128527 10:-0.020242 11:0.129477 12:0.043705 13:-0.003569 14:0.062687 15:0.106513 16:0.198997 17:-0.093505 18:-0.008291 19:0.031519 20:0.027336 21:0.021262 22:-0.0265 23:-0.111589 24:-0.033178 25:0.033377 26:-0.062715 27:-0.032207 28:-0.010464 29:0.020198 30:-0.014222 31:0.040901 32:-0.056312 33:-0.011673 34:-0.024735 35:0.001394 36:-0.000817 37:-0.096112 38:-0.090934 39:-0.221847 40:0.265758 41:-0.083195 42:-0.105177 43:-0.140809 44:-0.118113 45:-0.357626 46:0.027375 47:-0.124246 48:-0.074491 49:-0.133522 50:0.062857 51:0.181784 52:0.22284 53:0.223348 54:-0.223237 55:0.198707 56:0.093989 57:-0.029235 58:-0.00243 59:0.010828 60:0.081812 61:0.033502 62:0.150324 63:0.113643 64:0.077169 65:-0.117012 66:-0.031582 67:0.03838 68:0.00404 69:-0.026066 70:-0.079879 71:-0.037352 72:0.032746 73:-0.188193 74:-0.069943 75:-0.082854 76:0.024319 77:-0.073565 78:-0.109678 79:0.017868 80:-0.010855 81:-0.038643 82:0.051563 83:-0.068485 84:0.147516 85:-0.058635 86:-0.066249 87:-0.048857 88:-0.001863 89:-0.073264 90:-0.078376 91:-0.079157 92:0.109416 93:-0.023356 94:0.126572 95:0.079247 96:0.015233 97:-0.056476 98:-0.075097 99:-0.065214 100:0.045967 101:-0.058008 102:-0.02743 103:0.091693 
0.0914368346507364 1:-0.036116 2:-0.09104 3:-0.10526 4:0.022063 5:0.092307 6:-0.123632 7:0.054579 8:0.152698 9:0.071706 10:0.19544 11:0.01937 12:0.420541 13:-0.110238 14:0.053533 15:0.066189 16:0.03099 17:0.017576 18:-0.186216 19:-0.000477 20:-0.150237 21:-0.20149 22:0.016258 23:-0.020013 24:-0.054215 25:-0.05043 26:-0.143197 27:0.052514 28:0.05029 29:-0.084553 30:0.015198 31:0.138843 32:-0.101359 33:0.132763 34:0.104867 35:0.136215 36:0.126466 37:0.11087 38:0.066156 39:-0.003335 40:-0.099884 41:0.069845 42:0.030141 43:0.010844 44:-0.216219 45:-0.045885 46:-0.040773 47:-0.029028 48:0.028416 49:0.011335 50:0.131394 51:0.097284 52:0.11465 53:0.159209 54:-0.060646 55:0.061744 56:0.069161 57:0.005851 58:0.087118 59:-0.236699 60:0.007742 61:-0.09308 62:-0.013175 63:-9.3e-005 64:-0.066201 65:-0.006158 66:-0.066248 67:-0.01788 68:0.115165 69:-0.081533 70:-0.061127 71:-0.165869 72:-0.126246 73:0.072122 74:-0.014493 75:-0.036966 76:-0.115258 77:-0.041663 78:-0.134864 79:-0.093988 80:-0.063159 81:-0.023247 82:0.080268 83:0.096532 84:-0.038872 85:-0.025921 86:-0.031988 87:-0.126108 88:-0.035267 89:0.037087 90:0.119513 91:0.04349 92:0.011791 93:0.034127 94:0.066919 95:-0.067932 96:-0.068095 97:-0.025961 98:0.030558 99:-0.053894 100:-0.081323 101:0.021554 102:-0.086875 103:0.072814 
0.9289704941547992 1:-0.261276 2:-0.113777 3:-0.237924 4:-0.281969 5:-0.174663 6:0.088132 7:0.162083 8:0.254055 9:0.261876 10:0.182381 11:0.016661 12:-0.008508 13:-0.067542 14:0.03286 15:0.03705 16:0.13468 17:0.222639 18:0.215213 19:-0.126889 20:-0.119085 21:0.066076 22:-0.152011 23:-0.148451 24:-0.058701 25:0.097231 26:0.059906 27:0.045267 28:0.12264 29:0.166709 30:0.106772 31:0.121772 32:0.095502 33:0.035489 34:-0.13433 35:-0.228801 36:0.010164 37:-0.095082 38:0.105501 39:-0.068729 40:-0.169535 41:-0.095216 42:0.053179 43:0.083918 44:0.06639 45:-0.032414 46:-0.139508 47:-0.103326 48:0.029217 49:0.09645 50:0.012868 51:0.030026 52:0.037729 53:0.021275 54:0.100079 55:0.040583 56:-0.00926 57:0.022303 58:0.0148 59:-0.023348 60:-0.006861 61:-0.01729 62:-0.03532 63:0.067115 64:0.064189 65:-0.003643 66:-0.054951 67:-0.054854 68:0.000636 69:0.012686 70:-0.017462 71:-0.019523 72:0.086279 73:0.025279 74:0.001593 75:-0.047972 76:-0.017035 77:-0.011687 78:-0.014376 79:-0.030616 80:-0.012018 81:-0.029897 82:0.004836 83:-0.017805 84:0.006073 85:-0.000978 86:-0.007305 87:-0.018096 88:-0.035283 89:-0.032911 90:0.023092 91:-0.006487 92:-0.027798 93:-0.00252 94:0.024819 95:-0.016254 96:-0.026506 97:-0.023059 98:-0.029901 99:0.008226 100:0.00336 101:-0.023258 102:0.003273 103:0.098094 
1 1:0.101273 2:0.046317 3:0.009909 4:-0.014955 5:-0.01378 6:0.042766 7:-0.031082 8:0.136905 9:0.155674 10:0.043931 11:0.134148 12:0.042974 13:0.062032 14:0.093657 15:0.070748 16:0.098323 17:0.072941 18:0.012723 19:-0.076319 20:-0.153002 21:-0.034296 22:0.064339 23:0.157703 24:0.136527 25:0.141207 26:0.035836 27:-0.130264 28:0.04535 29:0.082579 30:-0.123815 31:-0.010263 32:0.040797 33:0.022422 34:0.015892 35:0.023676 36:-0.097516 37:-0.054719 38:-0.024259 39:-0.046811 40:0.092213 41:-0.044132 42:-0.141025 43:-0.004349 44:0.052344 45:-0.055758 46:-0.052241 47:-0.047153 48:0.037327 49:-0.059496 50:0.178535 51:0.165112 52:0.169517 53:0.151355 54:-0.212562 55:0.086292 56:-0.017934 57:-0.058932 58:0.024772 59:0.062676 60:-0.080253 61:-0.114197 62:-0.078254 63:-0.020371 64:0.001129 65:0.058117 66:-0.134875 67:-0.083387 68:-0.133356 69:0.05638 70:-0.034968 71:-0.031296 72:0.007519 73:0.075991 74:0.018771 75:0.00532 76:-0.103655 77:-0.068971 78:-0.201148 79:-0.185633 80:0.056043 81:-0.13546 82:0.08303 83:-0.109556 84:0.134918 85:-0.123583 86:-0.144115 87:0.163682 88:0.084707 89:0.114328 90:-0.167247 91:-0.161276 92:0.165376 93:-0.128225 94:0.140915 95:-0.040541 96:0.093091 97:0.06827 98:-0.120397 99:-0.132243 100:0.030801 101:0.166804 102:-0.025087 103:-0.01025 
1 1:0.110058 2:0.063983 3:0.14293 4:-0.030212 5:-0.000526 6:-0.020748 7:-0.045353 8:0.027492 9:0.009946 10:0.05552 11:-0.019597 12:0.051185 13:0.028318 14:0.026939 15:-0.100057 16:0.066851 17:-0.027694 18:0.075078 19:0.059287 20:-0.033111 21:0.00698 22:-0.017469 23:0.005734 24:-0.02868 25:-0.039836 26:-0.189478 27:-0.181832 28:-0.135429 29:-0.009762 30:-0.300098 31:-0.071542 32:-0.075962 33:-0.023668 34:-0.007758 35:-0.046654 36:-0.076277 37:-0.056881 38:0.049031 39:-0.017161 40:-0.062046 41:-0.170733 42:-0.093897 43:-0.076275 44:0.135562 45:-0.023255 46:-0.012156 47:0.053968 48:0.094373 49:0.044671 50:-0.104032 51:-0.078894 52:-0.010524 53:-0.06416 54:0.235508 55:-0.12084 56:0.088438 57:0.016412 58:-0.045486 59:0.098112 60:-0.008581 61:0.125981 62:0.019751 63:-0.049856 64:0.11431 65:0.013708 66:0.019969 67:-0.039311 68:-0.179868 69:0.180205 70:0.211135 71:0.069899 72:0.075141 73:-0.069766 74:-0.033651 75:-0.012557 76:-0.037953 77:-0.06731 78:0.071109 79:0.133789 80:0.172176 81:-0.012674 82:-0.076521 83:-0.092905 84:0.152256 85:-0.098862 86:-0.100385 87:0.262562 88:0.097853 89:-0.099098 90:-0.123083 91:-0.04201 92:-0.101805 93:-0.049747 94:-0.107772 95:-0.087586 96:0.090258 97:0.07272 98:-0.013709 99:-0.004234 100:0.191936 101:0.2142 102:-0.089159 103:-0.10304 
0.4643344567186767 1:0.016841 2:-0.165463 3:-0.227732 4:-0.099227 5:-0.04179 6:-0.107098 7:-0.002005 8:0.16319 9:0.029178 10:0.068309 11:-0.058658 12:0.135287 13:0.052869 14:0.083888 15:-0.058605 16:0.212694 17:0.080173 18:0.104754 19:-0.119605 20:-0.032322 21:0.053577 22:0.082883 23:0.141254 24:0.108257 25:0.161977 26:-0.079518 27:-0.075347 28:0.05367 29:-0.012315 30:-0.094093 31:-0.115312 32:-0.009594 33:0.210272 34:0.170739 35:0.100722 36:-0.015285 37:0.014162 38:0.051177 39:0.042896 40:-0.045199 41:-0.030254 42:0.091978 43:0.040697 44:0.106223 45:-0.003723 46:-0.070315 47:-0.045449 48:0.106205 49:0.013638 50:-0.044648 51:0.015562 52:0.02205 53:-0.003471 54:0.066777 55:0.097887 56:0.141938 57:0.026513 58:0.000401 59:-0.062032 60:-0.165998 61:-0.120142 62:-0.094059 63:-0.068065 64:-0.119751 65:-0.090839 66:0.011174 67:-0.131176 68:-0.148143 69:-0.010767 70:-0.067006 71:-0.025767 72:0.124495 73:0.098604 74:0.098366 75:0.140751 76:-0.061478 77:-0.051315 78:-0.112268 79:-0.063939 80:-0.102493 81:0.070424 82:-0.060146 83:-0.147291 84:0.085475 85:-0.164235 86:-0.184555 87:-0.003466 88:0.090419 89:0.095549 90:0.120125 91:0.114758 92:0.033611 93:0.053846 94:0.031978 95:0.108583 96:0.05404 97:-0.139039 98:-0.134406 99:0.117112 100:0.04518 101:-0.181007 102:0.118692 103:-0.019778 
0.4801596369260821 1:-0.00168 2:-0.001931 3:-0.076817 4:-0.056818 5:-0.017176 6:0.020777 7:-0.025025 8:-0.074975 9:0.076903 10:0.138911 11:0.025702 12:0.049824 13:-0.033196 14:0.091331 15:0.016138 16:0.110677 17:0.021315 18:-0.026112 19:-0.029762 20:0.224333 21:0.063101 22:0.145747 23:0.079951 24:0.135696 25:0.0765 26:0.194769 27:0.09221 28:0.161361 29:0.074989 30:0.098154 31:0.121776 32:0.188023 33:0.158359 34:0.150973 35:0.160253 36:0.09182 37:-0.026698 38:0.077781 39:0.028417 40:0.009657 41:0.042761 42:0.025501 43:0.092217 44:-0.020322 45:0.059912 46:0.026125 47:0.026798 48:0.133473 49:-0.079597 50:-0.122933 51:-0.153694 52:-0.131017 53:-0.086616 54:0.177176 55:-0.070186 56:0.079006 57:-0.074042 58:-0.103145 59:-0.045045 60:-0.030578 61:-0.090217 62:-0.117126 63:-0.035739 64:-0.132746 65:0.111198 66:-0.047762 67:-0.065516 68:-0.074025 69:0.095677 70:-0.078435 71:-0.191668 72:-0.140581 73:0.117161 74:0.00137 75:-0.01342 76:-0.023931 77:-0.01979 78:-0.088042 79:-0.084988 80:0.033676 81:0.160429 82:-0.071535 83:-0.068759 84:-0.08016 85:-0.059074 86:-0.058792 87:-0.062358 88:-0.067865 89:-0.072357 90:-0.086865 91:-0.08774 92:-0.062581 93:0.183495 94:-0.060711 95:0.194311 96:-0.062821 97:0.205771 98:0.216683 99:-0.054906 100:-0.077413 101:-0.05481 102:-0.040531 103:0.019968 
1 1:-0.006696 2:0.007284 3:0.040414 4:0.001766 5:0.009159 6:-0.020936 7:-0.014134 8:-0.070864 9:-0.103798 10:-0.057216 11:-0.080326 12:-0.095776 13:-0.053344 14:-0.040287 15:-0.00935 16:-0.034179 17:-0.023611 18:-0.05945 19:0.108516 20:-0.106236 21:-0.091559 22:-0.036815 23:-0.110525 24:-0.164977 25:-0.216386 26:-0.192349 27:-0.098556 28:-0.155117 29:-0.276353 30:-0.087752 31:0.091905 32:0.086229 33:-0.027765 34:-0.100378 35:-0.088605 36:-0.036124 37:-0.025703 38:-0.049824 39:-0.004398 40:-0.06394 41:-0.023494 42:0.012234 43:-0.031433 44:-0.014438 45:0.034047 46:0.064658 47:0.068221 48:-0.013851 49:0.016036 50:0.012923 51:-0.001012 52:0.005758 53:0.032407 54:-0.027129 55:-0.068974 56:-0.00106 57:0.024856 58:0.01535 59:-0.057407 60:0.24522 61:0.260465 62:0.123098 63:0.136128 64:0.032688 65:-0.033135 66:-0.018041 67:0.030871 68:0.115556 69:-0.050569 70:-0.007077 71:-0.12544 72:-0.1009 73:-0.027243 74:-0.02811 75:-0.075745 76:0.07112 77:0.119144 78:0.270776 79:0.19133 80:0.05443 81:-0.096481 82:0.101914 83:-0.09311 84:0.192533 85:-0.096858 86:-0.098138 87:0.180814 88:0.168417 89:-0.102443 90:-0.000897 91:-0.003954 92:-0.101089 93:0.052362 94:-0.105419 95:0.090966 96:0.158873 97:-0.095874 98:-0.095106 99:-0.090878 100:0.09411 101:-0.102385 102:-0.078733 103:-0.027028 
0.7299387524825307 1:-0.087558 2:-0.017302 3:-0.063951 4:-0.105109 5:-0.07197 6:-0.020289 7:-0.117771 8:-0.038305 9:-0.144693 10:0.054201 11:0.066101 12:-0.191152 13:-0.205956 14:-0.078002 15:-0.082624 16:0.084987 17:-0.079691 18:0.071383 19:-0.009016 20:0.050735 21:-0.026094 22:0.066461 23:-0.053401 24:-0.169153 25:0.097579 26:0.118251 27:0.079592 28:-0.034613 29:0.119781 30:0.019363 31:-0.068178 32:-0.007709 33:0.044319 34:-0.026178 35:0.001928 36:0.093052 37:0.084711 38:0.089272 39:0.0584 40:-0.065178 41:0.022398 42:0.130896 43:0.056696 44:0.119654 45:0.059188 46:0.036427 47:0.021284 48:0.064127 49:-0.228947 50:-0.097029 51:-0.148721 52:-0.15373 53:-0.112232 54:-0.116606 55:-0.180048 56:-0.017005 57:-0.081295 58:-0.051785 59:0.007374 60:0.193805 61:0.139596 62:0.211934 63:0.085269 64:0.088961 65:-0.21655 66:-0.047521 67:-0.115132 68:-0.0105 69:0.199395 70:0.066045 71:0.176197 72:0.07105 73:-0.053405 74:-0.043348 75:-0.161807 76:-0.017376 77:0.019107 78:0.146017 79:0.24198 80:-0.025011 81:-0.031564 82:-0.059906 83:-0.018727 84:0.002986 85:0.010707 86:0.008311 87:-0.03901 88:0.004222 89:-0.008212 90:-0.032363 91:-0.062589 92:0.244025 93:-0.014147 94:0.001528 95:-0.047116 96:-0.043786 97:-0.048071 98:-0.048412 99:0.035413 100:-0.062292 101:-0.040561 102:-0.006716 103:0.118198 
0.7464732829611555 1:0.026386 2:0.01261 3:-0.018463 4:0.074521 5:0.050209 6:-0.00668 7:0.043128 8:0.119009 9:0.031178 10:0.110767 11:0.004662 12:0.070754 13:-0.05673 14:0.047878 15:0.065649 16:0.00064 17:0.220124 18:0.016159 19:-0.123914 20:-0.075907 21:-0.002843 22:0.042991 23:0.127606 24:0.108978 25:-0.024536 26:-0.012706 27:0.049614 28:0.058109 29:-0.155591 30:-0.23955 31:-0.10468 32:-0.22651 33:0.108817 34:0.138058 35:0.104159 36:0.062878 37:-0.014342 38:-0.0534 39:-0.09408 40:-0.01369 41:0.283475 42:-0.106218 43:0.032928 44:0.001662 45:-0.049662 46:-0.012767 47:-0.09522 48:0.006666 49:-0.075199 50:0.037569 51:0.075365 52:0.097045 53:0.075914 54:-0.021851 55:0.060856 56:0.063112 57:-0.101782 58:-0.023731 59:-0.085301 60:-0.08182 61:-0.017031 62:0.089279 63:0.095136 64:-0.041338 65:-0.070994 66:-0.099721 67:-0.122717 68:-0.048209 69:0.011169 70:0.138202 71:-0.08484 72:-0.023035 73:0.032175 74:-0.060286 75:0.001645 76:-0.14888 77:-0.176179 78:-0.066197 79:0.059964 80:0.02249 81:-0.065471 82:-0.033813 83:-0.005751 84:-0.089729 85:0.086109 86:0.107157 87:-0.060864 88:-0.057058 89:0.278355 90:0.0712 91:0.386308 92:0.140156 93:-0.063786 94:0.006101 95:-0.06398 96:-0.059888 97:0.010529 98:-0.06328 99:-0.058973 100:-0.071898 101:-0.070668 102:-0.045488 103:-0.076814 
1 1:-0.100964 2:-0.005172 3:-0.078718 4:0.006236 5:-0.316573 6:-0.047217 7:-0.196732 8:-0.061817 9:-0.04353 10:0.09813 11:-0.024539 12:-0.102268 13:-0.115313 14:-0.22936 15:-0.194294 16:-0.086882 17:-0.140925 18:-0.154064 19:0.26433 20:0.181928 21:0.014933 22:-0.035791 23:-0.150193 24:0.024296 25:0.072718 26:0.03292 27:-0.010044 28:-0.018807 29:0.136928 30:0.048227 31:0.091626 32:0.069249 33:-0.099871 34:-0.039179 35:-0.096888 36:-0.056065 37:-0.077956 38:-0.130199 39:-0.051478 40:-0.141381 41:-0.052508 42:0.007803 43:-0.105765 44:0.157397 45:0.121016 46:0.042496 47:0.109052 48:0.011881 49:0.082275 50:0.124088 51:0.094968 52:0.040013 53:-0.004881 54:-0.05114 55:-0.008804 56:-0.110287 57:0.110277 58:0.219933 59:-0.020273 60:0.002214 61:0.014674 62:-0.126701 63:-0.093903 64:-0.142076 65:0.073427 66:0.162423 67:0.125218 68:0.172895 69:-0.055739 70:-0.082654 71:-0.088518 72:0.096972 73:-0.121592 74:-0.152729 75:0.030948 76:-0.081228 77:-0.121744 78:0.107714 79:0.010573 80:0.002444 81:-0.016717 82:-0.02093 83:-0.014013 84:-0.048964 85:0.008767 86:0.004982 87:-0.009141 88:-0.031888 89:-0.022725 90:-0.023792 91:-0.026572 92:-0.003149 93:-0.023471 94:0.00501 95:-0.006762 96:-0.01602 97:-0.016117 98:-0.012278 99:0.002508 100:-0.034344 101:-0.014513 102:0.025762 103:0.123407 
0.3102399425219981 1:-0.023028 2:0.007718 3:0.024178 4:0.034192 5:0.045865 6:-0.027757 7:0.074952 8:0.060127 9:0.042638 10:0.015293 11:0.10245 12:0.038053 13:0.059084 14:0.104242 15:0.141192 16:0.125983 17:-0.045532 18:0.083772 19:0.002107 20:0.021183 21:0.087102 22:0.249029 23:0.09002 24:0.131206 25:0.139478 26:0.058923 27:0.090474 28:0.107925 29:0.051931 30:0.093577 31:0.164139 32:0.118596 33:-0.10417 34:-0.046166 35:-0.073323 36:-0.114563 37:-0.199777 38:0.015782 39:-0.215023 40:-0.164153 41:-0.050904 42:-0.134068 43:-0.215377 44:0.031297 45:-0.190289 46:-0.167375 47:-0.135456 48:0.144829 49:-0.061937 50:-0.088447 51:-0.059632 52:-0.041559 53:-0.04096 54:-0.003271 55:0.041857 56:0.040303 57:-0.092323 58:-0.114912 59:0.062483 60:0.109212 61:0.042111 62:0.107733 63:0.086877 64:0.020288 65:0.011621 66:-0.08784 67:0.064718 68:-0.00913 69:0.06596 70:0.022205 71:0.027889 72:0.127528 73:0.16598 74:0.005028 75:-0.051539 76:0.008439 77:0.003211 78:-0.027996 79:-0.002727 80:0.063291 81:-0.091696 82:-0.147796 83:0.017595 84:-0.009539 85:-0.055727 86:0.146667 87:-0.077363 88:-0.071292 89:-0.099366 90:0.192004 91:0.282898 92:0.061726 93:0.029758 94:0.0767 95:-0.024454 96:0.014963 97:-0.09071 98:-0.027758 99:-0.001204 100:0.075181 101:-0.14074 102:-0.127684 103:0.010333 
0.9120259066955462 1:0.04624 2:0.056728 3:0.061007 4:0.125893 5:0.033838 6:0.025629 7:-0.13787 8:0.043511 9:0.117803 10:0.016116 11:0.218144 12:0.04415 13:0.082404 14:0.157873 15:0.018117 16:0.172652 17:0.017966 18:-0.049325 19:-0.045923 20:0.312307 21:0.016892 22:0.058841 23:0.014733 24:-0.011995 25:0.01871 26:0.019436 27:-0.10436 28:-0.022485 29:-0.029796 30:-0.076552 31:0.033877 32:0.01299 33:-0.062402 34:0.010101 35:-0.00771 36:-0.044765 37:-0.116831 38:-0.018434 39:0.056629 40:0.057289 41:0.024042 42:-0.102414 43:-0.040827 44:0.050875 45:-0.048434 46:-0.079449 47:-0.102639 48:0.114323 49:-0.242059 50:-0.216832 51:-0.165945 52:-0.156231 53:-0.099995 54:0.029411 55:0.011931 56:0.14521 57:-0.104425 58:-0.108161 59:-0.015662 60:0.058291 61:0.069092 62:0.072148 63:0.05797 64:0.024694 65:0.028571 66:0.047276 67:0.06037 68:0.115722 69:0.014167 70:0.09716 71:0.099023 72:0.135601 73:-0.0304 74:0.02297 75:0.001553 76:-0.02493 77:-0.057083 78:-0.009716 79:0.047317 80:-0.048681 81:-0.068593 82:0.330651 83:-0.068808 84:-0.099393 85:-0.05867 86:-0.058376 87:-0.061978 88:-0.036864 89:-0.051265 90:-0.090974 91:-0.088676 92:0.124074 93:-0.077051 94:0.210201 95:-0.066843 96:0.1797 97:-0.066658 98:-0.066613 99:-0.060233 100:0.218889 101:0.066604 102:-0.040109 103:-0.003917 
0.08742704935439256 1:0.084765 2:0.05642 3:0.014438 4:-0.034558 5:0.124632 6:-0.047596 7:0.043737 8:-0.048617 9:0.068992 10:0.194076 11:0.009117 12:-0.004139 13:-0.074223 14:-0.029585 15:0.007194 16:-0.084389 17:0.133643 18:0.01792 19:0.053017 20:-0.073556 21:-0.080619 22:-0.062125 23:-0.015564 24:0.013556 25:-0.027017 26:0.036349 27:0.004657 28:-0.045222 29:0.010137 30:-0.196024 31:-0.03191 32:-0.149692 33:-0.053674 34:-0.051929 35:0.046432 36:-0.022302 37:0.019605 38:0.069755 39:-0.055755 40:-0.134784 41:-0.035123 42:0.115051 43:0.069348 44:0.025851 45:0.155029 46:0.17546 47:0.231818 48:-0.066063 49:-0.094453 50:-0.074313 51:-0.076161 52:-0.049071 53:-0.061682 54:0.068119 55:0.001547 56:-0.008986 57:-0.023267 58:0.006616 59:-0.017498 60:-0.046312 61:0.09761 62:-0.041856 63:-0.091937 64:0.044999 65:0.290175 66:0.379342 67:0.065728 68:0.05379 69:-0.039007 70:0.117835 71:-0.049541 72:-0.116717 73:-0.031248 74:-0.043299 75:-0.101792 76:-0.218445 77:-0.06379 78:-0.029578 79:-0.13233 80:0.181242 81:0.176974 82:-0.055871 83:-0.08739 84:-0.044413 85:-0.046047 86:-0.070808 87:-0.096498 88:-0.064724 89:-0.08853 90:-0.103766 91:-0.073256 92:0.010114 93:0.15566 94:-0.020706 95:0.209178 96:-0.091477 97:0.107546 98:0.096198 99:-0.055787 100:-0.069933 101:0.019582 102:-0.072799 103:0.011272 
0.2255817365978149 1:0.079192 2:-0.030939 3:0.038382 4:-0.003489 5:0.076772 6:-0.038348 7:0.182172 8:-0.064743 9:0.033714 10:0.197751 11:0.011806 12:0.053904 13:0.125161 14:0.138514 15:0.171323 16:0.060205 17:0.140343 18:0.069944 19:-0.146719 20:0.023379 21:0.060869 22:0.045727 23:0.197285 24:0.116002 25:0.103845 26:0.152056 27:0.095528 28:0.096563 29:0.033996 30:-0.019952 31:0.021089 32:0.050302 33:0.089386 34:0.047309 35:0.040376 36:0.072966 37:0.128009 38:0.087599 39:0.07564 40:0.018737 41:0.022708 42:0.036972 43:0.114952 44:-0.026563 45:0.040756 46:0.031104 47:0.035044 48:-0.159727 49:-0.136562 50:-0.164834 51:-0.143254 52:-0.05651 53:-0.017894 54:-0.025251 55:-0.035764 56:0.163492 57:-0.099782 58:-0.104529 59:-0.291585 60:-0.076054 61:-0.154814 62:-0.140409 63:-0.006468 64:-0.137026 65:0.073057 66:0.058425 67:-0.047927 68:-0.141566 69:-0.000972 70:0.022168 71:-0.110081 72:-0.128032 73:0.009862 74:0.048597 75:0.205481 76:0.191286 77:0.121098 78:-0.033761 79:-0.095862 80:0.205724 81:0.09182 82:-0.068599 83:-0.052332 84:-0.083507 85:-0.037047 86:-0.035927 87:-0.017453 88:-0.057568 89:-0.05501 90:-0.071447 91:-0.070113 92:-0.031519 93:0.101667 94:-0.022405 95:0.078984 96:-0.045599 97:0.141462 98:-0.049744 99:-0.026348 100:-0.061819 101:-0.054736 102:-0.015329 103:0.08541 
0.8734845365467074 1:-0.056181 2:-0.017752 3:0.035983 4:-0.046241 5:-0.014149 6:-0.092603 7:0.035954 8:-0.085106 9:-0.094998 10:-0.016786 11:-0.106328 12:-0.074802 13:-0.022324 14:-0.045962 15:0.034229 16:-0.041567 17:0.005154 18:-0.01784 19:0.10353 20:-0.080995 21:-0.200713 22:-0.138665 23:-0.179084 24:-0.062426 25:-0.167578 26:-0.030631 27:0.092198 28:0.023805 29:-0.075821 30:0.150367 31:0.096576 32:0.134352 33:-0.063824 34:-0.066164 35:-0.065101 36:0.022333 37:0.094322 38:-0.167554 39:0.091469 40:0.022863 41:0.106754 42:0.088539 43:0.013985 44:-0.036323 45:0.161155 46:0.172007 47:0.133313 48:-0.175987 49:0.013386 50:-0.007111 51:0.008391 52:-0.139014 53:-0.052756 54:0.008799 55:-0.067643 56:-0.086985 57:-0.052617 58:-0.001524 59:-0.104521 60:0.13343 61:0.07062 62:0.048808 63:0.036994 64:0.038944 65:-0.009335 66:-0.061264 67:0.06639 68:0.091812 69:-0.029825 70:-0.059146 71:-0.027223 72:0.013616 73:-0.134711 74:0.014687 75:-0.180658 76:0.041147 77:0.162471 78:0.188256 79:0.152738 80:-0.078921 81:-0.007118 82:0.059836 83:0.013265 84:-0.052153 85:-0.03313 86:-0.108032 87:-0.10436 88:-0.059092 89:0.058065 90:-0.049207 91:-0.062736 92:0.163281 93:0.384695 94:0.16362 95:-0.005987 96:-0.074889 97:0.11563 98:-0.00098 99:0.084007 100:-0.098906 101:0.068811 102:-0.097223 103:-0.125316 
0.6835761362103525 1:0.052784 2:0.215546 3:-0.012815 4:0.209028 5:0.130889 6:-0.056104 7:0.038944 8:-0.024162 9:-0.035025 10:-0.01728 11:0.085948 12:0.081362 13:0.081863 14:-0.00992 15:0.07551 16:-0.04302 17:-0.095592 18:-0.005744 19:-0.00895 20:-0.031889 21:0.051199 22:0.092381 23:0.031685 24:-0.005196 25:0.062299 26:-0.148485 27:-0.0637 28:-0.06789 29:-0.097566 30:0.009764 31:-0.154438 32:-0.040745 33:0.005239 34:-0.008152 35:0.03423 36:-0.026889 37:-0.059398 38:-0.120591 39:-0.036244 40:-0.094768 41:-0.044534 42:-0.074552 43:-0.116543 44:-0.109001 45:-0.048384 46:-0.06339 47:-0.061769 48:-0.007609 49:-0.114932 50:-0.099637 51:-0.093312 52:-0.136682 53:-0.123722 54:-0.07703 55:-0.110262 56:0.001671 57:0.04012 58:0.002275 59:0.185723 60:0.091247 61:0.158284 62:0.300676 63:0.050119 64:0.272613 65:-0.058199 66:0.055443 67:0.007138 68:-0.123199 69:0.23214 70:0.047674 71:0.217262 72:0.189914 73:0.162828 74:-0.023094 75:-0.08235 76:-0.125207 77:-0.08732 78:-0.069783 79:-0.055927 80:-0.015938 81:-0.06735 82:-0.031053 83:-0.049532 84:0.010126 85:0.008813 86:0.000374 87:-0.048694 88:-0.071001 89:0.176227 90:0.224253 91:0.071175 92:-0.018461 93:-0.070924 94:-0.049926 95:-0.069902 96:-0.065321 97:0.016154 98:0.04766 99:-0.009781 100:-0.064084 101:-0.077523 102:-0.040393 103:0.091444 
0.6428272921568343 1:0.05957 2:0.00095 3:0.008624 4:0.010769 5:0.025707 6:0.003813 7:0.027243 8:0.22711 9:0.063361 10:0.07437 11:0.089675 12:0.11494 13:0.097156 14:0.189384 15:0.133582 16:0.244596 17:0.049365 18:0.142205 19:-0.045082 20:0.041011 21:0.101785 22:0.182753 23:0.098233 24:0.04044 25:0.127485 26:0.06744 27:0.109692 28:0.103957 29:0.053449 30:0.057709 31:0.04907 32:6.5e-005 33:0.042948 34:-0.003382 35:0.048369 36:-0.01222 37:0.003042 38:-0.052322 39:-0.03748 40:0.037086 41:0.042999 42:0.060328 43:0.015855 44:0.083135 45:-0.072705 46:0.018043 47:-0.073558 48:0.264157 49:-0.163117 50:-0.167275 51:-0.139275 52:-0.071084 53:0.012068 54:0.081565 55:0.078693 56:0.23896 57:-0.212109 58:-0.223891 59:0.065388 60:-0.056371 61:-0.227442 62:-0.143368 63:-0.088393 64:-0.104566 65:0.118895 66:0.082219 67:0.027329 68:-0.070259 69:0.031402 70:-0.082277 71:-0.086985 72:-0.113628 73:0.068817 74:0.059912 75:0.01273 76:0.111259 77:0.089539 78:-0.005693 79:-0.108789 80:0.083897 81:0.09405 82:-0.067017 83:-0.048517 84:-0.081468 85:-0.026224 86:-0.02918 87:-0.042586 88:-0.061097 89:-0.051912 90:-0.074943 91:-0.07372 92:-0.050153 93:0.080301 94:-0.042385 95:0.107522 96:-0.046993 97:0.098855 98:0.08445 99:-0.041875 100:-0.065583 101:-0.056656 102:-0.010683 103:0.114909 
1 1:0.076366 2:-0.109394 3:-0.001228 4:-0.029211 5:-0.058316 6:-0.129285 7:0.021961 8:-0.080795 9:-0.055544 10:-0.091249 11:0.010977 12:0.061863 13:0.259801 14:-0.053134 15:-0.000826 16:-0.008266 17:0.035166 18:0.077651 19:-0.058864 20:-0.056189 21:0.118915 22:0.055079 23:-0.032398 24:-0.016255 25:0.068778 26:-0.039102 27:0.038559 28:0.211457 29:-0.071569 30:0.116594 31:-0.122834 32:0.131615 33:-0.001186 34:0.058578 35:0.04033 36:-0.103221 37:-0.082383 38:-0.136946 39:-0.100504 40:-0.001863 41:-0.042238 42:-0.043606 43:-0.050824 44:0.124813 45:-0.04909 46:-0.168846 47:-0.088749 48:0.122358 49:0.124844 50:0.159461 51:0.047108 52:0.065447 53:0.055006 54:-0.077271 55:-0.049277 56:-0.126833 57:0.100256 58:0.172067 59:0.046949 60:0.065376 61:-0.029395 62:-0.075761 63:0.078103 64:-0.004294 65:0.062643 66:-0.001721 67:-0.029983 68:0.0355 69:-0.157562 70:-0.087513 71:-0.175468 72:-0.104145 73:0.118692 74:0.168364 75:-0.008402 76:-0.017876 77:-0.005467 78:-0.062271 79:-0.068589 80:0.017696 81:0.020074 82:0.151606 83:0.085408 84:0.034996 85:-0.102442 86:-0.149414 87:-0.174391 88:-0.104605 89:-0.129933 90:-0.026432 91:0.055979 92:0.191187 93:0.223147 94:0.230351 95:0.039529 96:-0.167134 97:0.044061 98:0.037684 99:0.09411 100:-0.109555 101:0.01997 102:-0.117184 103:-0.075113 
1 1:-0.023059 2:-0.007026 3:0.019523 4:-0.076446 5:-0.008685 6:-0.026466 7:-0.015312 8:0.003418 9:-0.003588 10:-0.035528 11:0.013737 12:-0.076072 13:-0.038156 14:-0.029208 15:0.023601 16:-0.048074 17:0.023615 18:0.038179 19:0.023349 20:-0.075266 21:-0.048423 22:-0.091467 23:0.014287 24:0.01454 25:-0.054374 26:-0.065464 27:-0.119819 28:-0.120911 29:-0.065398 30:-0.058538 31:0.009208 32:0.022899 33:0.169538 34:0.097767 35:-0.162312 36:-0.348183 37:-0.217638 38:0.13406 39:0.152414 40:0.013157 41:-0.130464 42:-0.179731 43:0.015308 44:-0.004503 45:0.151336 46:0.148699 47:0.151814 48:-0.094843 49:0.030264 50:0.058276 51:0.040573 52:0.052743 53:-0.001489 54:-0.076245 55:-0.024108 56:-0.003187 57:0.051802 58:0.094144 59:0.034071 60:0.021559 61:0.037934 62:0.079134 63:-0.004647 64:0.059903 65:0.05083 66:0.035035 67:-0.123172 68:-0.185528 69:0.038899 70:0.065014 71:0.062493 72:0.032324 73:-0.078694 74:-0.077498 75:-0.068511 76:-0.057824 77:0.003155 78:-0.019134 79:0.05449 80:-0.027383 81:-0.037157 82:-0.058242 83:0.007443 84:0.072127 85:-0.033827 86:-0.033099 87:0.420872 88:-0.0488 89:-0.044707 90:-0.060821 91:-0.059566 92:-0.042795 93:-0.052118 94:0.331877 95:-0.042576 96:-0.039698 97:0.098758 98:0.18792 99:-0.036804 100:-0.052423 101:-0.047469 102:-0.017149 103:-0.125399 
1 1:0.071037 2:0.079617 3:0.047965 4:0.071015 5:0.07384 6:-0.042197 7:-0.032097 8:0.068075 9:-0.014879 10:0.016254 11:0.039685 12:0.056378 13:0.06188 14:0.10519 15:0.072771 16:0.116301 17:0.000919 18:0.004229 19:0.009147 20:0.008276 21:0.071236 22:0.055364 23:-0.00655 24:-0.092621 25:-0.065039 26:-0.180121 27:-0.140287 28:-0.1121 29:-0.192496 30:-0.238541 31:-0.214489 32:-0.048205 33:0.01479 34:0.044503 35:0.021162 36:0.001599 37:-0.054139 38:-0.005945 39:-0.014572 40:0.057688 41:-0.007986 42:0.029931 43:-0.101492 44:-0.044059 45:-0.098092 46:-0.015577 47:-0.106358 48:0.128027 49:-0.102337 50:-0.017468 51:0.065437 52:0.149577 53:0.171013 54:-0.127405 55:0.18228 56:0.206073 57:-0.180889 58:-0.132605 59:0.074852 60:-0.027364 61:-0.089847 62:0.062625 63:0.011552 64:-0.026292 65:-0.036621 66:-0.073765 67:-0.060777 68:-0.019864 69:0.067661 70:0.016244 71:-0.028424 72:-0.048354 73:0.083398 74:0.062977 75:0.171356 76:0.105692 77:0.177261 78:-0.018371 79:0.109497 80:0.060571 81:-0.021014 82:-0.045737 83:-0.020747 84:0.439023 85:-0.016321 86:1e-006 87:-0.022446 88:0.259549 89:-0.015556 90:-0.03992 91:-0.04538 92:-0.028581 93:-0.034476 94:-0.02057 95:-0.026347 96:-0.027336 97:-0.029006 98:-0.027109 99:-0.022379 100:-0.018109 101:-0.033498 102:0.009959 103:-0.142526 
1 1:0.135014 2:0.092437 3:0.113831 4:0.113366 5:0.067467 6:0.099023 7:0.088969 8:0.077346 9:0.049729 10:0.058313 11:0.025645 12:0.054096 13:0.007895 14:0.018928 15:-0.004235 16:-0.052199 17:0.104545 18:0.035889 19:-0.057655 20:0.082937 21:0.008965 22:-0.168848 23:-0.194676 24:-0.140582 25:-0.093761 26:-0.0581 27:0.023097 28:-0.001609 29:-0.067147 30:0.019229 31:0.073095 32:-0.014686 33:-0.01393 34:0.001922 35:-0.015658 36:-0.109268 37:-0.113649 38:-0.226646 39:-0.078375 40:-0.103787 41:-0.103415 42:-0.087578 43:-0.075561 44:0.045356 45:-0.09928 46:-0.104683 47:-0.050902 48:-0.022917 49:-0.010001 50:-0.084808 51:-0.058034 52:-0.049549 53:-0.015086 54:0.117552 55:-0.090322 56:0.046451 57:-0.014751 58:-0.037 59:0.016449 60:0.140526 61:0.132161 62:0.049657 63:0.14614 64:0.031168 65:-0.065729 66:0.04684 67:0.004732 68:-0.100897 69:0.067052 70:0.140222 71:0.188955 72:0.133407 73:-0.251306 74:-0.114209 75:-0.064213 76:-0.074842 77:-0.08077 78:0.091959 79:0.168496 80:0.016802 81:0.004114 82:-0.085516 83:-0.069075 84:0.220747 85:-0.051368 86:-0.062879 87:-0.052912 88:0.254974 89:-0.038124 90:0.214405 91:0.201202 92:-0.067515 93:-0.041569 94:-0.068048 95:-0.008063 96:0.186981 97:-0.063146 98:-0.062573 99:0.003399 100:-0.069064 101:-0.071058 102:-0.034854 103:-0.13326 
0.2243413204018649 1:-0.097238 2:-0.009721 3:-0.020566 4:0.133156 5:0.082697 6:0.048245 7:-0.058445 8:0.013764 9:-0.168884 10:-0.05501 11:-0.047255 12:0.116112 13:0.145019 14:-0.032936 15:-0.05077 16:-0.119813 17:0.096609 18:-0.145927 19:-0.021082 20:0.018019 21:0.108303 22:0.053091 23:0.257123 24:0.162107 25:-0.011344 26:-0.063243 27:-0.071634 28:-0.011627 29:0.062149 30:-0.12343 31:-0.065857 32:-0.127483 33:-0.102859 34:0.039727 35:0.093153 36:-0.066838 37:-0.085688 38:-0.168763 39:0.024629 40:-0.018156 41:-0.064448 42:-0.017425 43:-0.096 44:-0.244007 45:-0.019385 46:-0.126031 47:-0.07003 48:0.015756 49:0.139356 50:0.1609 51:0.078729 52:0.076414 53:0.075404 54:-0.033281 55:-0.175856 56:-0.102898 57:0.206711 58:0.151538 59:0.238554 60:-0.054837 61:0.018864 62:0.007782 63:-0.090136 64:0.102906 65:-0.062117 66:-0.000619 67:-0.107058 68:-0.121083 69:0.100439 70:0.138176 71:0.149715 72:0.199836 73:-0.10283 74:-0.137155 75:-0.116818 76:-0.068321 77:-0.075566 78:-0.111683 79:-0.193117 80:0.011191 81:-0.009612 82:0.105527 83:-0.029679 84:-0.040629 85:0.051754 86:0.001161 87:-0.03776 88:-0.050357 89:-0.018188 90:-0.03929 91:-0.017559 92:-0.006605 93:-0.021731 94:0.034423 95:-0.040831 96:-0.04247 97:-0.04665 98:-0.028823 99:-0.037226 100:-0.01535 101:-0.051371 102:0.051857 103:0.127243 
0.03127488761686883 1:0.168336 2:0.05705 3:0.045623 4:0.12826 5:0.146041 6:0.078982 7:0.055166 8:0.080364 9:0.041797 10:0.121853 11:0.105206 12:0.14492 13:0.049988 14:0.084286 15:0.151266 16:0.145025 17:0.058535 18:0.069975 19:-0.014713 20:-0.009132 21:0.15011 22:0.172728 23:0.00342 24:-0.048434 25:0.072945 26:-0.143908 27:-0.022121 28:0.029389 29:-0.027291 30:0.014795 31:-0.048769 32:0.049388 33:0.060205 34:-0.013083 35:-0.032433 36:0.060655 37:0.068057 38:0.064783 39:0.038941 40:-0.050171 41:-0.086492 42:0.038725 43:-0.031991 44:0.000947 45:-0.073698 46:-0.09286 47:-0.075314 48:-0.069007 49:-0.098303 50:-0.099144 51:-0.147523 52:-0.114963 53:-0.07959 54:0.109825 55:-0.058549 56:0.015727 57:-0.088367 58:-0.101541 59:0.052975 60:-0.046661 61:-0.058289 62:0.148123 63:0.116336 64:0.117176 65:-0.161434 66:-0.052688 67:-0.072465 68:-0.064871 69:0.19714 70:-0.187806 71:0.022552 72:0.054986 73:0.085892 74:0.061637 75:-0.054239 76:0.007093 77:0.053226 78:-0.131848 79:-0.011626 80:0.067168 81:0.084881 82:0.319409 83:-0.077687 84:0.022483 85:-0.12418 86:-0.124966 87:0.084384 88:0.025652 89:-0.111926 90:-9e-006 91:-0.005607 92:-0.142603 93:0.244752 94:-0.121832 95:0.073242 96:0.025373 97:0.101977 98:0.102622 99:-0.097687 100:0.04564 101:0.043937 102:-0.12978 103:-0.177267 
0.3087817900542542 1:0.063274 2:0.01478 3:-0.007032 4:0.024021 5:0.017977 6:-0.148616 7:-0.044403 8:0.224001 9:-0.003759 10:0.038543 11:-0.004152 12:0.208529 13:0.077964 14:0.127983 15:0.050252 16:0.029818 17:-0.021859 18:0.046122 19:0.032706 20:-0.005441 21:0.041217 22:0.095682 23:0.160647 24:0.101261 25:0.087616 26:-0.090264 27:0.074557 28:0.120289 29:-0.048039 30:0.024484 31:0.019795 32:0.034273 33:0.172319 34:0.195503 35:0.231459 36:-0.136038 37:-0.100734 38:-0.071907 39:0.038877 40:0.034364 41:-0.222164 42:-0.050125 43:-0.277687 44:-0.004978 45:0.073034 46:-0.014966 47:-0.013981 48:0.105244 49:-0.083917 50:-0.055771 51:-0.143447 52:-0.09313 53:-0.165232 54:0.009308 55:-0.061139 56:-0.108481 57:-0.056173 58:0.006793 59:-0.049805 60:-0.013638 61:0.052423 62:0.041779 63:0.05333 64:-0.114214 65:0.034039 66:-0.06504 67:0.006676 68:0.135288 69:0.03832 70:0.021188 71:-0.06068 72:0.02703 73:0.0386 74:-0.008238 75:0.132332 76:0.01364 77:-0.00726 78:0.089799 79:-0.053782 80:-0.009056 81:-0.050422 82:-0.0668 83:-0.009556 84:-0.063102 85:-0.008768 86:-0.03813 87:-0.035968 88:0.282859 89:-0.028227 90:0.294593 91:0.282909 92:-0.032703 93:-0.054814 94:-0.041825 95:-0.048897 96:-0.045594 97:-0.049235 98:-0.047275 99:-0.04137 100:-0.060122 101:-0.054508 102:-0.019937 103:-0.028224 
1 1:-0.09436 2:-0.029696 3:-0.00191 4:-0.097406 5:-0.092749 6:-0.04563 7:-0.016704 8:-0.006591 9:0.001755 10:0.022571 11:0.068001 12:0.151996 13:-0.12786 14:0.00588 15:0.009846 16:0.19322 17:-0.083982 18:0.086555 19:0.11388 20:-0.030188 21:-0.076475 22:0.044612 23:-0.029188 24:-0.084486 25:-0.021856 26:0.011029 27:-0.050863 28:-0.046065 29:-0.138181 30:-0.035871 31:-0.072274 32:-0.013157 33:-0.010793 34:0.09597 35:0.003092 36:0.017852 37:0.120138 38:-0.038049 39:0.05676 40:-0.088144 41:-0.029379 42:0.007197 43:0.046243 44:0.087103 45:0.072528 46:-0.060842 47:-0.19732 48:0.124776 49:-0.076773 50:-0.084032 51:-0.071452 52:-0.022542 53:-0.063019 54:-0.000781 55:-0.133259 56:0.032501 57:0.05737 58:0.032503 59:0.171486 60:0.158597 61:0.107134 62:0.186165 63:0.141912 64:0.076139 65:-0.012119 66:-0.119474 67:0.00593 68:-0.119899 69:0.076737 70:0.115939 71:0.109993 72:0.129525 73:-0.318089 74:-0.148615 75:-0.112137 76:-0.246993 77:-0.169032 78:0.007353 79:0.005324 80:-0.134759 81:-0.022482 82:0.11875 83:0.111139 84:-0.00322 85:0.085894 86:-0.04874 87:-0.031146 88:-0.089992 89:-0.032234 90:0.2255 91:0.123152 92:0.176746 93:-0.068726 94:-0.030803 95:0.110096 96:-0.132194 97:-0.022537 98:-0.038207 99:-0.037579 100:-0.085681 101:-0.045585 102:-0.127887 103:0.012167 
1 1:-0.070914 2:-0.085554 3:0.041594 4:-0.073908 5:0.058328 6:-0.038606 7:0.04304 8:0.136672 9:-0.050605 10:0.008687 11:-0.052518 12:-0.048466 13:-0.016213 14:0.019454 15:0.030461 16:-0.054403 17:0.001907 18:0.103277 19:0.01917 20:-0.118037 21:-0.090689 22:-0.185213 23:-0.167865 24:-0.105186 25:-0.257367 26:-0.006411 27:0.16671 28:0.016689 29:-0.139337 30:0.160913 31:0.106411 32:0.067914 33:0.053539 34:0.073767 35:-0.021765 36:-0.116995 37:-0.049012 38:-0.027795 39:0.114854 40:-0.033731 41:-0.12031 42:-0.226784 43:-0.02852 44:0.025408 45:-0.062818 46:-0.003866 47:-0.069145 48:0.060388 49:0.144758 50:0.023595 51:-0.026799 52:-0.077599 53:-0.049737 54:0.144657 55:-0.044798 56:-0.075193 57:0.018392 58:-0.045001 59:-0.031857 60:0.090904 61:0.001583 62:-0.021298 63:-0.028568 64:0.020263 65:0.106771 66:0.1581 67:0.101436 68:-0.135385 69:0.00916 70:0.017862 71:-0.002626 72:-0.068878 73:0.054829 74:0.002781 75:0.16279 76:0.127092 77:0.211681 78:0.136049 79:0.139144 80:-0.037716 81:-0.050759 82:-0.067584 83:-0.04832 84:-0.080923 85:-0.039739 86:-0.047674 87:0.25701 88:0.185032 89:0.262377 90:-0.074679 91:-0.073877 92:-0.056233 93:-0.064248 94:-0.051067 95:-0.047638 96:0.155837 97:-0.055236 98:-0.055222 99:-0.049607 100:0.190329 101:-0.058234 102:-0.031878 103:-0.049348 
0.07267840354802867 1:-0.097341 2:0.035752 3:0.00331 4:0.078352 5:-0.101746 6:0.074052 7:-0.166994 8:-0.02894 9:-0.048023 10:0.080134 11:-0.006143 12:-0.055061 13:-0.131997 14:-0.060187 15:-0.072342 16:-0.022165 17:-0.033047 18:-0.049423 19:0.171414 20:0.161009 21:-0.022848 22:-0.078949 23:-0.089814 24:-0.068184 25:-0.005345 26:0.014973 27:0.001004 28:0.020889 29:0.027586 30:0.051478 31:0.113979 32:0.169802 33:0.001598 34:-0.067715 35:-0.080547 36:-0.079998 37:-0.078938 38:-0.09959 39:-0.071787 40:-0.088826 41:-0.075807 42:-0.019561 43:-0.063316 44:0.027567 45:0.008549 46:-0.002536 47:0.020857 48:0.02298 49:-0.103013 50:-0.187131 51:-0.158971 52:-0.143126 53:-0.150906 54:0.072001 55:-0.024832 56:0.056723 57:0.036434 58:-0.017158 59:0.126101 60:0.15973 61:0.161063 62:0.216016 63:0.195518 64:0.136164 65:0.042957 66:-0.03638 67:0.213761 68:0.212236 69:0.119937 70:0.025857 71:0.008187 72:0.180665 73:-0.122336 74:-0.186899 75:-0.162702 76:-0.027764 77:-0.105498 78:0.049432 79:-0.011884 80:-0.036491 81:-0.100745 82:0.120112 83:-0.03053 84:0.003577 85:-0.008627 86:-0.031409 87:0.279188 88:-0.083735 89:-0.127004 90:-0.072295 91:-0.054302 92:0.050749 93:-0.0613 94:-0.01748 95:-0.051495 96:0.15429 97:0.016799 98:0.032502 99:-0.076447 100:-0.076225 101:0.028315 102:-0.014892 103:0.068748 
0.9607354471167581 1:0.081105 2:0.028522 3:-0.060794 4:-0.01003 5:0.048844 6:-0.015026 7:-0.009365 8:0.025679 9:0.103382 10:0.194334 11:0.044704 12:-0.0787 13:-0.024931 14:0.127504 15:0.014254 16:0.094345 17:0.135774 18:0.581105 19:0.067321 20:-0.010653 21:-0.02746 22:-0.142179 23:0.001414 24:0.076903 25:-0.300984 26:-0.325855 27:-0.117466 28:-0.062117 29:0.01747 30:-0.02012 31:-0.062286 32:0.009382 33:0.203218 34:0.143638 35:0.08983 36:0.024016 37:-0.047292 38:0.038769 39:0.045416 40:-0.09503 41:0.059379 42:-0.094221 43:0.02961 44:-0.016293 45:0.040301 46:-0.082844 47:-0.055107 48:0.063879 49:-0.030141 50:-0.077059 51:-0.165079 52:-0.050561 53:0.023737 54:0.0997 55:-0.143709 56:0.128036 57:-0.04604 58:-0.060906 59:-0.033469 60:-0.023219 61:0.044064 62:0.000286 63:0.011481 64:-0.038954 65:-0.02733 66:-0.059537 67:-0.035961 68:0.070326 69:-0.035733 70:0.001252 71:0.089269 72:0.054081 73:-0.111641 74:-0.076352 75:0.143337 76:-0.042852 77:-0.038632 78:0.03528 79:-0.009533 80:0.002007 81:-0.014378 82:-0.021437 83:-0.006385 84:-0.044038 85:0.019547 86:0.006229 87:-0.008139 88:-0.028233 89:-0.020027 90:-0.03222 91:-0.010342 92:-0.010316 93:-0.025493 94:-0.003573 95:-0.013392 96:-0.01486 97:0.000247 98:-0.00283 99:-0.002928 100:-0.030178 101:-0.016547 102:0.022382 103:0.108025 
0.1132060612101092 1:0.018652 2:0.106785 3:0.048904 4:0.056999 5:-0.128955 6:-0.082008 7:-0.052597 8:-0.193574 9:-0.077904 10:-0.087352 11:-0.05889 12:-0.062178 13:-0.022182 14:-0.162017 15:-0.112666 16:-0.16483 17:-0.155433 18:-0.087438 19:0.061579 20:0.051655 21:-0.031726 22:-0.076251 23:-0.23702 24:-0.150501 25:-0.122768 26:-0.108376 27:-0.04409 28:0.009528 29:-0.05403 30:0.071788 31:0.03235 32:-0.024184 33:-0.029554 34:-0.081634 35:-0.140359 36:-0.116951 37:-0.163723 38:0.019642 39:-0.09529 40:-0.032611 41:0.038864 42:-0.188447 43:-0.151512 44:-0.007078 45:-0.041955 46:-0.051113 47:0.054811 48:0.027872 49:0.105578 50:0.051338 51:0.042826 52:0.078181 53:0.105626 54:0.078205 55:-0.025337 56:0.081908 57:0.006278 58:0.022459 59:0.036971 60:0.122989 61:0.197291 62:0.042745 63:0.035013 64:0.019646 65:-0.036311 66:0.010379 67:0.080356 68:0.088433 69:-0.006721 70:0.20168 71:-0.004953 72:-0.032987 73:0.011826 74:0.134538 75:0.093451 76:0.022777 77:-0.038392 78:0.135465 79:0.097028 80:-0.026465 81:-0.043123 82:0.512504 83:0.031172 84:-0.04971 85:-0.032799 86:-0.032023 87:0.118737 88:-0.020382 89:-0.033694 90:-0.025893 91:-0.035488 92:-0.024528 93:-0.039532 94:-0.037682 95:-0.04179 96:0.026589 97:0.008289 98:-0.035992 99:-0.00276 100:-0.005809 101:0.008686 102:-0.015877 103:-0.079631 
1 1:-0.019296 2:0.058195 3:-0.030334 4:-0.005674 5:-0.186276 6:0.066996 7:-0.127552 8:0.120047 9:0.011174 10:0.047703 11:-0.051738 12:0.028074 13:0.025819 14:-0.023082 15:-0.053563 16:-0.053453 17:0.050035 18:0.070191 19:0.13203 20:0.081827 21:0.211841 22:0.216696 23:0.212714 24:0.103543 25:0.10292 26:-0.171685 27:-0.185452 28:-0.084141 29:0.099493 30:-0.126616 31:-0.136457 32:-0.019098 33:0.074833 34:0.034945 35:0.072783 36:-0.01466 37:-0.022589 38:-0.050913 39:-0.120722 40:-0.060924 41:-0.011404 42:0.002333 43:-0.058788 44:0.081915 45:-0.177998 46:0.008703 47:-0.031958 48:0.032653 49:-0.066237 50:-0.106661 51:-0.104256 52:-0.077319 53:-0.118161 54:0.06368 55:0.083293 56:-0.104834 57:0.055465 58:0.014653 59:0.077665 60:-0.132612 61:-0.008707 62:-0.042768 63:-0.055595 64:0.098849 65:0.077721 66:0.161504 67:0.044395 68:0.05213 69:-0.052226 70:0.153175 71:-0.053215 72:0.006521 73:0.004272 74:-0.052211 75:0.063324 76:0.00726 77:-0.00749 78:0.068829 79:0.090309 80:-0.052708 81:0.46036 82:-0.08501 83:-0.00921 84:-0.095008 85:-0.062769 86:0.099118 87:-0.004603 88:-0.0708 89:-0.03848 90:0.012639 91:0.091219 92:0.045932 93:0.167916 94:-0.069585 95:-0.067825 96:-0.017551 97:0.112404 98:-0.016391 99:-0.062545 100:-0.076166 101:0.007555 102:-0.048372 103:-0.090566 
1 1:-0.086027 2:0.113633 3:0.081733 4:-0.003616 5:-0.148488 6:-0.059821 7:-0.165654 8:-0.077872 9:-0.050928 10:0.018544 11:0.00273 12:-0.027144 13:-0.081344 14:-0.076163 15:-0.052686 16:-0.014682 17:-0.083754 18:-0.062501 19:0.114117 20:0.076886 21:-0.032079 22:-0.086155 23:-0.230639 24:-0.163993 25:-0.087065 26:-0.026108 27:-0.016249 28:-0.079446 29:-0.056314 30:0.073758 31:0.098981 32:0.054263 33:-0.004925 34:-0.081426 35:-0.038513 36:-0.00352 37:-0.042669 38:-0.03196 39:0.035894 40:-0.012982 41:0.032346 42:-0.006629 43:-0.001388 44:0.140636 45:0.098972 46:0.201477 47:0.169678 48:0.018506 49:-0.077726 50:-0.109001 51:-0.116197 52:-0.090646 53:-0.082028 54:0.046768 55:-0.102073 56:-0.013132 57:-0.001761 58:-0.020499 59:-0.006629 60:0.224724 61:0.107958 62:0.050673 63:0.028412 64:-0.005291 65:-0.01333 66:-0.006778 67:0.009532 68:0.05726 69:-0.010247 70:-0.030182 71:-0.005211 72:-0.048493 73:-0.104046 74:-0.044597 75:-0.024934 76:0.133558 77:0.078315 78:0.153752 79:0.207592 80:-0.069096 81:-0.086103 82:0.210535 83:-0.077588 84:0.139263 85:0.165187 86:0.194114 87:0.197682 88:0.134189 89:0.172907 90:-0.108731 91:-0.105389 92:-0.087032 93:-0.084755 94:-0.079761 95:-0.084355 96:0.144885 97:-0.083229 98:-0.082865 99:-0.079316 100:0.179616 101:-0.043882 102:-0.068368 103:-0.161434 
0.7215347608207845 1:-0.050176 2:-0.064477 3:-0.125551 4:-0.01317 5:-0.162622 6:-0.049818 7:-0.062472 8:-0.098035 9:-0.005226 10:0.1227 11:0.001296 12:0.157915 13:0.012283 14:-0.059561 15:-0.044872 16:0.037734 17:-0.103857 18:0.011386 19:-0.02484 20:0.10412 21:0.123289 22:0.152741 23:0.071913 24:0.092093 25:0.041904 26:0.180633 27:0.211933 28:0.21189 29:0.092732 30:0.120475 31:0.141706 32:0.238678 33:0.005492 34:0.003814 35:-0.077708 36:-0.06716 37:-0.022329 38:-0.041637 39:-0.041497 40:-0.14615 41:-0.089284 42:-0.006066 43:-0.11438 44:-0.018309 45:-0.006458 46:-0.067142 47:-0.082553 48:-0.068016 49:-0.135809 50:-0.097806 51:-0.021815 52:-0.034267 53:0.019981 54:-0.133287 55:0.104891 56:0.097569 57:-0.08731 58:-0.086976 59:0.098075 60:0.039363 61:0.062436 62:0.346348 63:0.11302 64:0.019816 65:-0.151728 66:-0.069759 67:0.07689 68:-0.012407 69:0.295005 70:-0.013012 71:0.077098 72:0.165104 73:-0.06168 74:-0.172791 75:-0.131053 76:-0.053395 77:-0.101736 78:-0.088461 79:-0.091036 80:-0.033183 81:-0.006863 82:-0.054113 83:-0.043196 84:-0.03734 85:-0.000315 86:0.01264 87:0.061463 88:-0.020423 89:-0.031994 90:-0.028629 91:-0.029234 92:-0.060108 93:-0.017611 94:-0.029017 95:-0.001059 96:0.117257 97:-0.01066 98:-0.01306 99:-0.047249 100:0.027403 101:-0.041973 102:0.004322 103:0.106625 
1 1:0.06668 2:-0.047482 3:-0.003144 4:0.127922 5:0.139771 6:0.062097 7:-0.016759 8:0.046455 9:0.125208 10:-0.048234 11:0.152089 12:-0.053339 13:-0.025421 14:0.030427 15:0.146887 16:0.209547 17:-0.094616 18:-0.15753 19:0.23304 20:0.007777 21:0.110742 22:-0.010775 23:0.015053 24:-0.034155 25:0.004197 26:-0.029475 27:-0.047539 28:-0.102394 29:-0.118366 30:-0.125439 31:0.013044 32:-0.142077 33:-0.07573 34:-0.062021 35:0.064407 36:0.054267 37:0.088817 38:0.032975 39:0.006309 40:-0.07085 41:0.021027 42:-0.154812 43:0.053637 44:-0.013003 45:0.130967 46:0.085238 47:0.164941 48:0.211058 49:-0.147313 50:-0.227069 51:-0.185285 52:-0.231702 53:-0.176609 54:0.02427 55:-0.026044 56:0.013454 57:-0.140857 58:-0.210784 59:-0.015395 60:0.040122 61:0.058255 62:-0.015173 63:-0.027732 64:-0.076021 65:-0.027618 66:0.152481 67:0.031361 68:0.050636 69:-0.12186 70:0.097998 71:0.037355 72:0.146075 73:0.143781 74:0.105427 75:0.112467 76:0.141457 77:0.119284 78:0.160749 79:0.141485 80:-0.022616 81:-0.049419 82:0.00336 83:-0.011201 84:-0.070159 85:-0.000412 86:-0.016966 87:0.019496 88:-0.036043 89:-0.036707 90:-0.016954 91:-0.011717 92:0.03152 93:-0.016155 94:0.013641 95:-0.047458 96:-0.036252 97:-0.042866 98:-0.040678 99:0.057219 100:-0.057509 101:0.040843 102:0.000399 103:0.148639 
0.06598631926671454 1:-0.023101 2:-0.012746 3:0.06485 4:0.018378 5:0.034249 6:0.001659 7:0.028053 8:0.046139 9:-0.023781 10:0.23771 11:-0.013458 12:0.190429 13:-0.036614 14:-0.010302 15:-0.001066 16:-0.019729 17:0.130818 18:0.032621 19:0.054623 20:-0.055196 21:-0.03389 22:-0.09064 23:-0.014502 24:-0.009751 25:-0.104809 26:0.092076 27:0.02439 28:0.076557 29:-0.009602 30:0.019948 31:0.057414 32:0.00849 33:-0.05176 34:-0.110931 35:7.3e-005 36:-0.061824 37:-0.120919 38:-0.098851 39:0.025489 40:0.278597 41:-0.185721 42:-0.211783 43:0.080384 44:0.017191 45:-0.166911 46:-0.040251 47:-0.10973 48:0.025167 49:0.100067 50:0.077732 51:0.035254 52:-0.032657 53:-0.01681 54:0.122818 55:0.070915 56:0.040907 57:0.107265 58:0.091017 59:-0.009198 60:-0.017029 61:-0.047104 62:-0.093453 63:-0.207187 64:-0.252977 65:0.02348 66:0.126729 67:0.040981 68:-0.040905 69:-0.149731 70:0.041375 71:-0.05343 72:0.02891 73:0.025427 74:-0.148292 75:0.105505 76:-8.9e-005 77:0.009978 78:0.097402 79:-0.015997 80:-0.097639 81:0.014994 82:0.352955 83:0.001138 84:-0.008604 85:0.043706 86:-0.07008 87:-0.099117 88:-0.13739 89:0.089846 90:0.157416 91:0.110179 92:0.087828 93:0.069966 94:0.043009 95:-0.146186 96:-0.130185 97:0.030804 98:0.012185 99:-0.100622 100:-0.029049 101:0.08887 102:-0.150395 103:-0.042248 
0.5400991837140426 1:0.008736 2:0.133429 3:0.090728 4:0.005761 5:0.008759 6:0.053362 7:0.106616 8:0.112819 9:0.170428 10:0.050193 11:-0.108889 12:0.127632 13:0.014611 14:0.14067 15:-0.088144 16:0.012007 17:0.055112 18:0.128791 19:-0.060509 20:-0.073194 21:0.094084 22:0.116039 23:0.029413 24:-0.104077 25:-0.028976 26:0.01136 27:-0.055827 28:-0.047581 29:0.003026 30:-0.084681 31:-0.222443 32:0.008332 33:0.118487 34:0.146215 35:0.026663 36:0.17743 37:-0.061498 38:-0.016069 39:-0.115793 40:-0.028027 41:0.186644 42:-0.107019 43:-0.140584 44:0.081604 45:-0.213968 46:-0.012968 47:-0.174123 48:-0.009232 49:-0.133213 50:-0.070366 51:0.02254 52:0.01372 53:0.02537 54:-0.091043 55:0.164745 56:0.008035 57:-0.150828 58:-0.092359 59:-0.04937 60:0.109188 61:0.036 62:-0.00694 63:0.243415 64:0.008022 65:-0.002643 66:0.054157 67:-0.050417 68:-0.090235 69:-0.094358 70:0.109662 71:-0.027668 72:0.039808 73:0.007287 74:-0.047151 75:-0.011567 76:0.074034 77:0.001692 78:0.048602 79:-0.018408 80:-0.011933 81:0.020298 82:-0.077611 83:0.038491 84:0.433554 85:-0.001953 86:-0.051923 87:-0.055295 88:0.10469 89:-0.066118 90:-0.079978 91:-0.079088 92:-0.007651 93:-0.069095 94:0.102251 95:-0.059765 96:-0.055858 97:-0.059628 98:-0.038872 99:0.139855 100:0.032358 101:-0.066255 102:0.004689 103:-0.058319 
1 1:0.009232 2:-0.001019 3:0.081967 4:0.018352 5:0.023427 6:-0.079291 7:-0.010452 8:-0.051086 9:-0.042525 10:-0.065794 11:0.06894 12:0.000739 13:0.002855 14:-0.077956 15:0.082263 16:-0.013009 17:-0.004793 18:-0.090934 19:-0.026404 20:-0.068204 21:0.005664 22:-0.062026 23:-0.052524 24:-0.10784 25:-0.100117 26:-0.098782 27:-0.013981 28:-0.071845 29:-0.187977 30:-0.018494 31:-0.026359 32:-0.130574 33:-0.041743 34:-0.070815 35:-0.082962 36:-0.106102 37:-0.175706 38:-0.117588 39:-0.086326 40:-0.152825 41:-0.12987 42:-0.136885 43:-0.141196 44:0.054881 45:-0.073954 46:-0.054886 47:-0.129734 48:-0.12332 49:0.001177 50:0.145464 51:0.155921 52:0.168594 53:0.155093 54:-0.168412 55:0.048148 56:0.013491 57:0.077075 58:0.144536 59:0.100677 60:0.025168 61:0.115404 62:0.150543 63:0.035394 64:0.284257 65:-0.055739 66:-0.003851 67:-0.005216 68:-0.145834 69:0.166794 70:0.047888 71:0.205495 72:0.08136 73:-0.080485 74:-0.077794 75:-0.144011 76:0.009377 77:0.016197 78:-0.07251 79:0.012305 80:0.205928 81:0.174027 82:-0.046238 83:-0.067389 84:-0.105912 85:-0.078483 86:-0.088446 87:-0.05514 88:-0.067128 89:-0.039886 90:-0.081481 91:-0.079645 92:-0.079157 93:0.119008 94:-0.06154 95:0.171229 96:-0.025252 97:0.11432 98:0.112513 99:-0.077609 100:-0.073303 101:-0.039759 102:-0.018136 103:0.051888 
